{"sizes":[30,30],"layers":[{"0":{},"1":{},"2":{},"3":{},"4":{},"5":{},"6":{},"7":{},"8":{},"9":{},"10":{},"11":{},"12":{},"13":{},"14":{},"15":{},"16":{},"17":{},"18":{},"19":{},"20":{},"21":{},"22":{},"23":{},"24":{},"25":{},"26":{},"27":{},"28":{},"29":{}},{"0":{"bias":-2.644505739212036,"weights":{"0":57.527442932128906,"1":6.380730628967285,"2":-1.7480072975158691,"3":0.14276845753192902,"4":0.7190306186676025,"5":-0.21625225245952606,"6":0.2684013843536377,"7":0.14399009943008423,"8":-0.15688005089759827,"9":-0.1292852908372879,"10":0.25817567110061646,"11":0.04066221043467522,"12":0.058598387986421585,"13":0.041407953947782516,"14":0.18923765420913696,"15":-0.244628444314003,"16":0.29149913787841797,"17":-0.007001690566539764,"18":0.019732048735022545,"19":0.015479694120585918,"20":-0.027686797082424164,"21":0.050829846411943436,"22":-0.05335133150219917,"23":-0.062146782875061035,"24":-0.01751246117055416,"25":-0.0019425760256126523,"26":-0.021820073947310448,"27":-0.021715188398957253,"28":0.09667322784662247,"29":0.05791986733675003}},"1":{"bias":-2.640092372894287,"weights":{"0":6.63607931137085,"1":50.1976432800293,"2":8.115694999694824,"3":-1.8506876230239868,"4":-0.4667035639286041,"5":0.9382344484329224,"6":-0.10097834467887878,"7":-0.1954023838043213,"8":0.23257048428058624,"9":-0.08692441135644913,"10":-0.3287346363067627,"11":0.426405668258667,"12":-0.18228955566883087,"13":0.3609110713005066,"14":-0.42764008045196533,"15":0.29923149943351746,"16":0.030460253357887268,"17":0.21364299952983856,"18":-0.25162723660469055,"19":0.2758345603942871,"20":-0.18160651624202728,"21":0.0964624360203743,"22":-0.14051666855812073,"23":0.11044228821992874,"24":-0.11380241066217422,"25":0.08145638555288315,"26":-0.04816041886806488,"27":0.004327873233705759,"28":-0.14654628932476044,"29":0.23186415433883667}},"2":{"bias":-2.6363744735717773,"weights":{"0":-1.601561427116394,"1":8.053500175476074,"2":49.94877243041992,"3":8.281978607177734,"4":-1.5709702968597412,"5":-0.3350297212600708,"6":0.858018159866333,"7":-0.504796028137207,"8":0.08433344960212708,"9":0.24238325655460358,"10":-0.13872890174388885,"11":-0.14594218134880066,"12":0.3982289731502533,"13":-0.0731823667883873,"14":0.00001282094217458507,"15":-0.28161686658859253,"16":0.6308688521385193,"17":-0.40436604619026184,"18":0.15797168016433716,"19":0.05149663984775543,"20":0.022733479738235474,"21":-0.028822440654039383,"22":0.1455087959766388,"23":-0.17952682077884674,"24":0.09753894805908203,"25":-0.0195422675460577,"26":0.004697256255894899,"27":-0.029399197548627853,"28":-0.14370101690292358,"29":0.1829153299331665}},"3":{"bias":-2.6301770210266113,"weights":{"0":0.3564341068267822,"1":-1.7201265096664429,"2":8.447456359863281,"3":49.499603271484375,"4":8.205735206604004,"5":-1.6313227415084839,"6":-0.5862540006637573,"7":0.9519763588905334,"8":-0.34317144751548767,"9":-0.2225431203842163,"10":0.434638649225235,"11":0.16027092933654785,"12":-0.389377236366272,"13":0.40371906757354736,"14":-0.15345776081085205,"15":0.10707370936870575,"16":-0.10210537910461426,"17":0.32400640845298767,"18":-0.38422688841819763,"19":0.27178919315338135,"20":-0.06557547301054001,"21":0.1759076565504074,"22":-0.30594879388809204,"23":0.35596147179603577,"24":-0.1363781988620758,"25":-0.0012389597250148654,"26":0.18460150063037872,"27":-0.07234981656074524,"28":-0.15655264258384705,"29":0.0803944543004036}},"4":{"bias":-2.640852928161621,"weights":{"0":0.954862654209137,"1":-0.4962990880012512,"2":-1.5954029560089111,"3":8.064210891723633,"4":50.05803680419922,"5":7.826363563537598,"6":-1.356748342514038,"7":-0.6464371085166931,"8":0.6834391355514526,"9":-0.19918859004974365,"10":-0.07491462677717209,"11":0.3362666368484497,"12":-0.1351819485425949,"13":-0.04699975624680519,"14":0.4185960292816162,"15":-0.37376129627227783,"16":0.35108810663223267,"17":-0.21552738547325134,"18":0.21574631333351135,"19":-0.2515089213848114,"20":0.18659882247447968,"21":0.07291053980588913,"22":-0.073765829205513,"23":-0.28706154227256775,"24":0.3158138692378998,"25":-0.14969667792320251,"26":0.07165928930044174,"27":0.0961121916770935,"28":-0.011387945152819157,"29":-0.07883712649345398}},"5":{"bias":-2.6414544582366943,"weights":{"0":-0.011206116527318954,"1":0.9089794158935547,"2":-0.43450728058815,"3":-1.6299158334732056,"4":7.7961015701293945,"5":50.40266799926758,"6":7.871596813201904,"7":-1.8116611242294312,"8":-0.3011801540851593,"9":0.6505695581436157,"10":-0.29455867409706116,"11":0.004368174821138382,"12":0.38969695568084717,"13":0.13364070653915405,"14":-0.5865787267684937,"15":0.4272588789463043,"16":-0.02079860307276249,"17":0.16137944161891937,"18":-0.17841674387454987,"19":0.3728055953979492,"20":-0.24881304800510406,"21":0.06808193773031235,"22":-0.06311158835887909,"23":0.06423158943653107,"24":-0.26935791969299316,"25":0.41958531737327576,"26":-0.16930577158927917,"27":0.11899369210004807,"28":-0.158008873462677,"29":0.04247257113456726}},"6":{"bias":-2.6485016345977783,"weights":{"0":0.37768951058387756,"1":-0.17601607739925385,"2":0.8672547340393066,"3":-0.648495078086853,"4":-1.4800560474395752,"5":7.9137749671936035,"6":50.206966400146484,"7":7.943636894226074,"8":-1.9354636669158936,"9":-0.31325364112854004,"10":0.6571767926216125,"11":-0.02933758683502674,"12":-0.07355457544326782,"13":0.37777435779571533,"14":-0.10538995265960693,"15":-0.2758733928203583,"16":0.4506123661994934,"17":-0.07769010961055756,"18":-0.01020544022321701,"19":-0.05410017445683479,"20":0.06308683753013611,"21":-0.05075458437204361,"22":0.03361980617046356,"23":-0.10575169324874878,"24":0.1074545681476593,"25":-0.1063598096370697,"26":0.1158311665058136,"27":-0.008777381852269173,"28":-0.2267647683620453,"29":0.21979142725467682}},"7":{"bias":-2.647930145263672,"weights":{"0":0.4177172780036926,"1":0.03228187933564186,"2":-0.4319011867046356,"3":1.0234806537628174,"4":-0.5029938817024231,"5":-1.6295708417892456,"6":7.7511796951293945,"7":50.19491958618164,"8":8.002056121826172,"9":-1.830612301826477,"10":-0.2546810805797577,"11":0.8544687032699585,"12":-0.33523184061050415,"13":0.1366545408964157,"14":0.07149393111467361,"15":-0.08530222624540329,"16":-0.09194210171699524,"17":0.40749305486679077,"18":-0.3199245035648346,"19":0.2304779440164566,"20":-0.278780460357666,"21":0.3829437494277954,"22":-0.28248029947280884,"23":0.23942303657531738,"24":-0.05350656807422638,"25":0.02391723543405533,"26":-0.15114131569862366,"27":0.06321172416210175,"28":-0.001312620472162962,"29":0.04845723882317543}},"8":{"bias":-2.6458730697631836,"weights":{"0":0.06113347038626671,"1":0.24657562375068665,"2":0.14370796084403992,"3":-0.28367042541503906,"4":0.8331895470619202,"5":-0.30619287490844727,"6":-2.0010433197021484,"7":7.996198654174805,"8":49.864097595214844,"9":8.226698875427246,"10":-1.6291675567626953,"11":-0.4074375033378601,"12":0.731328547000885,"13":0.026612263172864914,"14":-0.23903432488441467,"15":0.06750453263521194,"16":0.2902807891368866,"17":-0.3339822292327881,"18":0.32715174555778503,"19":-0.05216764658689499,"20":0.037088170647621155,"21":-0.21226142346858978,"22":0.26142480969429016,"23":-0.08579794317483902,"24":-0.005832227878272533,"25":0.08729236572980881,"26":0.1243181824684143,"27":-0.28603047132492065,"28":0.04038884863257408,"29":0.12303946912288666}},"9":{"bias":-2.6488358974456787,"weights":{"0":0.18689200282096863,"1":-0.024744946509599686,"2":0.3783012628555298,"3":-0.22355583310127258,"4":-0.07817857712507248,"5":0.6521350741386414,"6":-0.2915949821472168,"7":-1.8923213481903076,"8":8.024758338928223,"9":50.305789947509766,"10":7.520050048828125,"11":-1.6265935897827148,"12":-0.0941927507519722,"13":0.779058039188385,"14":-0.4164591431617737,"15":-0.003146709641441703,"16":0.4492476284503937,"17":0.04459761828184128,"18":-0.433144211769104,"19":0.42690837383270264,"20":-0.1561173051595688,"21":0.11943238973617554,"22":-0.1296190619468689,"23":0.02908066287636757,"24":0.0403856560587883,"25":0.10505487024784088,"26":-0.2638399004936218,"27":0.4661199152469635,"28":-0.41460171341896057,"29":0.22821828722953796}},"10":{"bias":-2.6500701904296875,"weights":{"0":0.43759363889694214,"1":-0.1628190577030182,"2":-0.07131261378526688,"3":0.3734475076198578,"4":-0.03577910363674164,"5":-0.36096787452697754,"6":0.6907947659492493,"7":-0.3830638825893402,"8":-1.6584513187408447,"9":7.659636497497559,"10":50.491790771484375,"11":7.902510643005371,"12":-1.7301877737045288,"13":-0.31550005078315735,"14":0.6327698826789856,"15":-0.22046422958374023,"16":0.06573532521724701,"17":0.06550154834985733,"18":0.3070608675479889,"19":-0.40141788125038147,"20":0.3222869634628296,"21":0.0008911259355954826,"22":-0.009205816313624382,"23":-0.09475402534008026,"24":0.1000657007098198,"25":0.035669777542352676,"26":0.2247643768787384,"27":-0.2304067611694336,"28":0.14485451579093933,"29":-0.03715110570192337}},"11":{"bias":-2.648777961730957,"weights":{"0":0.12878115475177765,"1":0.26308348774909973,"2":-0.2241215705871582,"3":0.10274169594049454,"4":0.216779887676239,"5":-0.1609233319759369,"6":-0.045686252415180206,"7":0.6929903030395508,"8":-0.5478869676589966,"9":-1.6570719480514526,"10":7.6713409423828125,"11":50.54590606689453,"12":7.864057540893555,"13":-1.6016217470169067,"14":-0.555213987827301,"15":0.685124397277832,"16":-0.008574002422392368,"17":-0.009957174770534039,"18":0.018709376454353333,"19":0.1491095870733261,"20":-0.28339239954948425,"21":0.31518104672431946,"22":-0.006168147083371878,"23":-0.02247055247426033,"24":-0.047556765377521515,"25":0.14475364983081818,"26":-0.22188664972782135,"27":0.3491504490375519,"28":-0.2897907495498657,"29":0.2063107043504715}},"12":{"bias":-2.6532254219055176,"weights":{"0":0.26261016726493835,"1":-0.18170766532421112,"2":0.4280886650085449,"3":-0.2971755266189575,"4":-0.11299116909503937,"5":0.32623523473739624,"6":-0.09200246632099152,"7":-0.25597667694091797,"8":0.6096863150596619,"9":-0.08202673494815826,"10":-1.9124552011489868,"11":7.936671257019043,"12":50.187931060791016,"13":8.264050483703613,"14":-1.9158586263656616,"15":-0.5050252676010132,"16":0.9381488561630249,"17":-0.3596614599227905,"18":0.2017151564359665,"19":0.04968421906232834,"20":0.17974555492401123,"21":-0.2922897934913635,"22":0.307847261428833,"23":-0.1421516388654709,"24":0.2176043838262558,"25":-0.16003254055976868,"26":0.22445107996463776,"27":-0.17204782366752625,"28":0.09558485448360443,"29":-0.013700161129236221}},"13":{"bias":-2.6562578678131104,"weights":{"0":0.05335712805390358,"1":0.29380854964256287,"2":-0.2277882695198059,"3":0.2991577684879303,"4":-0.16730889678001404,"5":-0.09191063046455383,"6":0.18181072175502777,"7":-0.019777167588472366,"8":-0.23616743087768555,"9":0.7397345304489136,"10":-0.5469843745231628,"11":-1.654325008392334,"12":8.043598175048828,"13":50.6376953125,"14":7.580634117126465,"15":-1.8468742370605469,"16":-0.18481262028217316,"17":0.5387423634529114,"18":-0.11581860482692719,"19":0.12766069173812866,"20":-0.1428745687007904,"21":0.32866722345352173,"22":-0.3512932360172272,"23":0.38767802715301514,"24":-0.12206894159317017,"25":0.060157373547554016,"26":0.058390311896800995,"27":0.06361541897058487,"28":-0.27005141973495483,"29":0.30380702018737793}},"14":{"bias":-2.6444640159606934,"weights":{"0":0.4774378538131714,"1":-0.34009984135627747,"2":0.10823602974414825,"3":-0.09844262897968292,"4":0.44207993149757385,"5":-0.33306360244750977,"6":-0.03645313158631325,"7":0.23852834105491638,"8":-0.09834889322519302,"9":-0.2684941589832306,"10":0.7458173036575317,"11":-0.3735004961490631,"12":-1.7181252241134644,"13":7.814185619354248,"14":50.5538444519043,"15":7.824946403503418,"16":-1.67288076877594,"17":-0.25301358103752136,"18":0.7522083520889282,"19":-0.38112255930900574,"20":0.18191204965114594,"21":0.10717598348855972,"22":-0.008491985499858856,"23":-0.33115294575691223,"24":0.3058459758758545,"25":-0.1366027295589447,"26":0.07743535190820694,"27":-0.010646426118910313,"28":0.28407174348831177,"29":-0.07684071362018585}},"15":{"bias":-2.6520702838897705,"weights":{"0":0.017888961359858513,"1":0.3361978828907013,"2":-0.31224048137664795,"3":0.24989303946495056,"4":-0.3075982928276062,"5":0.46991825103759766,"6":-0.29077374935150146,"7":-0.04105766490101814,"8":-0.029957126826047897,"9":0.23540158569812775,"10":-0.19755499064922333,"11":0.7076824307441711,"12":-0.40747547149658203,"13":-1.6032466888427734,"14":7.850015640258789,"15":50.31106185913086,"16":7.935429573059082,"17":-1.950439453125,"18":-0.13463079929351807,"19":0.688212513923645,"20":-0.3220469355583191,"21":0.34195879101753235,"22":-0.17502912878990173,"23":0.20642563700675964,"24":-0.3004506528377533,"25":0.3840469717979431,"26":-0.15805195271968842,"27":0.09382852911949158,"28":-0.1430896520614624,"29":0.28268489241600037}},"16":{"bias":-2.6503875255584717,"weights":{"0":0.2757343053817749,"1":-0.24398741126060486,"2":0.3777753412723541,"3":-0.2903638482093811,"4":0.11961660534143448,"5":-0.1208961009979248,"6":0.38352251052856445,"7":-0.3173563480377197,"8":0.1228024959564209,"9":0.17812272906303406,"10":-0.1031440943479538,"11":-0.1985219568014145,"12":0.7911555767059326,"13":-0.13648094236850739,"14":-1.9056757688522339,"15":7.83552885055542,"16":50.64718246459961,"17":7.914547443389893,"18":-2.10235595703125,"19":-0.22217576205730438,"20":0.716286301612854,"21":-0.346272736787796,"22":0.18040761351585388,"23":-0.0753500834107399,"24":0.19572502374649048,"25":-0.2268718034029007,"26":0.2893456518650055,"27":-0.16937263309955597,"28":0.04344889149069786,"29":0.14510349929332733}},"17":{"bias":-2.6445095539093018,"weights":{"0":0.03959216549992561,"1":0.3269437551498413,"2":-0.4264194369316101,"3":0.35532137751579285,"4":-0.18695247173309326,"5":0.08654648810625076,"6":-0.09485769271850586,"7":0.3285965621471405,"8":-0.35387319326400757,"9":0.031191345304250717,"10":0.04287135973572731,"11":0.19741350412368774,"12":-0.17653344571590424,"13":0.7474873065948486,"14":-0.4911104738712311,"15":-1.8623745441436768,"16":8.114056587219238,"17":50.06509780883789,"18":8.256787300109863,"19":-1.9434850215911865,"20":-0.39246681332588196,"21":0.8773530125617981,"22":-0.40100833773612976,"23":0.18574362993240356,"24":0.02853354439139366,"25":0.20038233697414398,"26":-0.10319973528385162,"27":0.24526163935661316,"28":-0.1274416148662567,"29":0.16952040791511536}},"18":{"bias":-2.6416687965393066,"weights":{"0":0.24877704679965973,"1":-0.16398906707763672,"2":0.2836439907550812,"3":-0.3652821481227875,"4":0.20673415064811707,"5":-0.06705866008996964,"6":0.08119139075279236,"7":-0.13134165108203888,"8":0.39508041739463806,"9":-0.518058180809021,"10":0.2879905104637146,"11":-0.002554185688495636,"12":0.2861705720424652,"13":-0.16910891234874725,"14":0.5463199019432068,"15":-0.15984810888767242,"16":-2.1931710243225098,"17":8.407265663146973,"18":49.980140686035156,"19":7.924318313598633,"20":-1.5831423997879028,"21":-0.40413376688957214,"22":0.6826316118240356,"23":-0.27372726798057556,"24":0.2659227252006531,"25":-0.11210478842258453,"26":0.35296574234962463,"27":-0.30126869678497314,"28":0.21356646716594696,"29":0.054129138588905334}},"19":{"bias":-2.65326189994812,"weights":{"0":0.0784124955534935,"1":0.11867070198059082,"2":-0.034014854580163956,"3":0.13374027609825134,"4":-0.32778841257095337,"5":0.3034084141254425,"6":-0.11569840461015701,"7":0.02974417433142662,"8":-0.09069985151290894,"9":0.2873205244541168,"10":-0.3818604350090027,"11":0.2652554512023926,"12":0.09026756882667542,"13":0.22124837338924408,"14":-0.38673776388168335,"15":0.6969027519226074,"16":-0.2610737681388855,"17":-1.7908552885055542,"18":7.948008060455322,"19":50.3349723815918,"20":7.6198039054870605,"21":-1.3804608583450317,"22":-0.4962286651134491,"23":0.8558814525604248,"24":-0.49110907316207886,"25":0.38650161027908325,"26":-0.08209778368473053,"27":0.2548281252384186,"28":-0.29313990473747253,"29":0.26764804124832153}},"20":{"bias":-2.6389732360839844,"weights":{"0":0.1418735235929489,"1":-0.02522170916199684,"2":-0.014417880214750767,"3":-0.050911255180835724,"4":0.1739363819360733,"5":-0.22623920440673828,"6":0.09721169620752335,"7":-0.03730945661664009,"8":0.029686782509088516,"9":-0.17226256430149078,"10":0.2833808362483978,"11":-0.1837943196296692,"12":0.33813247084617615,"13":0.017114076763391495,"14":0.0870346948504448,"15":-0.40889254212379456,"16":0.7249544858932495,"17":-0.3246282935142517,"18":-1.5600481033325195,"19":7.749659061431885,"20":50.0800895690918,"21":8.192296028137207,"22":-1.797260046005249,"23":-0.2341567873954773,"24":0.7959598898887634,"25":-0.3238745927810669,"26":0.321044921875,"27":-0.1681770384311676,"28":0.21096284687519073,"29":0.05205260217189789}},"21":{"bias":-2.6407222747802734,"weights":{"0":0.0945921391248703,"1":0.11849596351385117,"2":-0.2120542824268341,"3":0.1863061487674713,"4":-0.06999614089727402,"5":0.012796822935342789,"6":-0.1473158746957779,"7":0.2861253023147583,"8":-0.23979438841342926,"9":0.0035149280447512865,"10":0.01644412986934185,"11":0.3951781988143921,"12":-0.3630915880203247,"13":0.2565843164920807,"14":-0.10359852761030197,"15":0.2858450412750244,"16":-0.44421184062957764,"17":0.8503773808479309,"18":-0.4731857478618622,"19":-1.6737157106399536,"20":8.160238265991211,"21":49.96617889404297,"22":8.02739429473877,"23":-1.990131139755249,"24":-0.1881566196680069,"25":0.7507290840148926,"26":-0.18007118999958038,"27":0.17261549830436707,"28":0.047692906111478806,"29":0.15408635139465332}},"22":{"bias":-2.637803554534912,"weights":{"0":0.09646330773830414,"1":-0.06933428347110748,"2":0.12646672129631042,"3":-0.15729942917823792,"4":-0.0060903169214725494,"5":-0.01821553334593773,"6":0.028826674446463585,"7":-0.09743137657642365,"8":0.2253885418176651,"9":-0.11709504574537277,"10":0.07073039561510086,"11":-0.017012901604175568,"12":0.33722177147865295,"13":-0.18722514808177948,"14":0.0038475797045975924,"15":-0.06093600019812584,"16":0.22182510793209076,"17":-0.37191885709762573,"18":0.800268292427063,"19":-0.4324459731578827,"20":-1.7075755596160889,"21":8.143927574157715,"22":49.86178970336914,"23":8.348255157470703,"24":-2.03420352935791,"25":-0.10950303822755814,"26":0.5521793365478516,"27":-0.14512144029140472,"28":0.283155232667923,"29":0.13086090981960297}},"23":{"bias":-2.642350435256958,"weights":{"0":-0.0023140525445342064,"1":0.21620845794677734,"2":-0.23269905149936676,"3":0.2678059935569763,"4":-0.27855491638183594,"5":0.16845597326755524,"6":-0.1970740705728531,"7":0.15705694258213043,"8":-0.04929792135953903,"9":0.018581073731184006,"10":-0.01363612525165081,"11":0.04632513225078583,"12":-0.07290451228618622,"13":0.45875483751296997,"14":-0.49400830268859863,"15":0.1488744467496872,"16":-0.018908053636550903,"17":0.2606043219566345,"18":-0.2858579456806183,"19":0.8662697672843933,"20":-0.38922345638275146,"21":-2.0025901794433594,"22":8.312225341796875,"23":49.882484436035156,"24":8.105358123779297,"25":-2.0083813667297363,"26":-0.21406970918178558,"27":0.9918755888938904,"28":-0.48509636521339417,"29":0.4751950204372406}},"24":{"bias":-2.6408162117004395,"weights":{"0":0.13476532697677612,"1":-0.06612759083509445,"2":0.0662430077791214,"3":-0.21176104247570038,"4":0.192001074552536,"5":-0.2668685019016266,"6":0.10219123214483261,"7":0.015486008487641811,"8":0.08714450895786285,"9":-0.10605291277170181,"10":0.1874009072780609,"11":-0.16035059094429016,"12":0.28584355115890503,"13":-0.14824549853801727,"14":0.25188305974006653,"15":-0.35949310660362244,"16":0.18992844223976135,"17":0.038630641996860504,"18":0.34352871775627136,"19":-0.3744639456272125,"20":0.6564902663230896,"21":-0.22725044190883636,"22":-2.1017494201660156,"23":8.184362411499023,"24":50.095314025878906,"25":8.136730194091797,"26":-1.7906087636947632,"27":-0.31612834334373474,"28":0.7823214530944824,"29":0.04982227459549904}},"25":{"bias":-2.631455659866333,"weights":{"0":0.09980468451976776,"1":0.08015179634094238,"2":-0.17067545652389526,"3":0.04723776504397392,"4":-0.2839200496673584,"5":0.36835533380508423,"6":-0.13233356177806854,"7":-0.007567069958895445,"8":-0.08925708383321762,"9":0.03970435634255409,"10":0.07548549026250839,"11":0.16014142334461212,"12":-0.12146446108818054,"13":0.16827286779880524,"14":-0.375509113073349,"15":0.45040419697761536,"16":-0.3462786376476288,"17":0.24950851500034332,"18":-0.09223170578479767,"19":0.3678434491157532,"20":-0.3802298903465271,"21":0.6593266129493713,"22":-0.22727908194065094,"23":-1.9401800632476807,"24":8.17762279510498,"25":50.2502326965332,"26":7.7781982421875,"27":-1.5330525636672974,"28":-0.5926880240440369,"29":0.9828858375549316}},"26":{"bias":-2.636035680770874,"weights":{"0":0.09671519696712494,"1":-0.05360754206776619,"2":-0.08865369856357574,"3":0.055645186454057693,"4":0.05494329705834389,"5":-0.1375076174736023,"6":0.14217092096805573,"7":-0.11581572145223618,"8":0.014047511853277683,"9":-0.23527143895626068,"10":0.4152550995349884,"11":-0.17284855246543884,"12":0.24133430421352386,"13":0.00882978830486536,"14":-0.06542801856994629,"15":-0.27502861618995667,"16":0.20691797137260437,"17":-0.046955179423093796,"18":0.31455081701278687,"19":-0.08637599647045135,"20":0.13356389105319977,"21":-0.2503940761089325,"22":0.40096014738082886,"23":-0.05462293326854706,"24":-1.878180980682373,"25":7.9840850830078125,"26":50.05989456176758,"27":8.517460823059082,"28":-1.887844443321228,"29":0.32884836196899414}},"27":{"bias":-2.627054452896118,"weights":{"0":0.06886493414640427,"1":0.12691070139408112,"2":-0.12603646516799927,"3":-0.007563991937786341,"4":0.008542615920305252,"5":0.008174066431820393,"6":0.012738674879074097,"7":0.1088409349322319,"8":-0.30095648765563965,"9":0.2958243489265442,"10":-0.2565966844558716,"11":0.3482026755809784,"12":-0.19092746078968048,"13":0.20019018650054932,"14":-0.20711499452590942,"15":0.04774964600801468,"16":-0.14291587471961975,"17":0.3499440550804138,"18":-0.25298964977264404,"19":0.2578812539577484,"20":-0.17948117852210999,"21":0.1089191883802414,"22":-0.2930474877357483,"23":0.8808896541595459,"24":-0.4405122399330139,"25":-1.628738284111023,"26":8.283429145812988,"27":49.45570373535156,"28":8.584957122802734,"29":-1.510683536529541}},"28":{"bias":-2.6493260860443115,"weights":{"0":0.1934485137462616,"1":0.013047123327851295,"2":-0.15660090744495392,"3":-0.07890908420085907,"4":0.13985829055309296,"5":-0.12463130056858063,"6":-0.0441388264298439,"7":0.1604180783033371,"8":-0.01420761737972498,"9":-0.33059391379356384,"10":0.3100433945655823,"11":-0.08828514814376831,"12":0.28751784563064575,"13":-0.2053956836462021,"14":0.1335964798927307,"15":-0.20412921905517578,"16":0.10471494495868683,"17":-0.11105119436979294,"18":0.38658538460731506,"19":-0.36902955174446106,"20":0.13399846851825714,"21":0.13338938355445862,"22":0.12290259450674057,"23":-0.3792439103126526,"24":0.8739861845970154,"25":-0.5183886885643005,"26":-2.0743210315704346,"27":8.724418640136719,"28":49.464820861816406,"29":7.1681227684021}},"29":{"bias":-2.6325743198394775,"weights":{"0":-0.08653659373521805,"1":0.22557269036769867,"2":-0.06219996511936188,"3":0.1362018883228302,"4":-0.16001656651496887,"5":-0.028836959972977638,"6":0.12643244862556458,"7":-0.14408862590789795,"8":-0.042356058955192566,"9":0.21625684201717377,"10":-0.08603326976299286,"11":0.14141616225242615,"12":-0.022521929815411568,"13":0.255062460899353,"14":-0.3349993824958801,"15":0.22593547403812408,"16":-0.02830706723034382,"17":0.005936666391789913,"18":0.06741882860660553,"19":0.10844793170690536,"20":-0.06000237539410591,"21":-0.03495972231030464,"22":-0.03777075558900833,"23":0.351838618516922,"24":-0.19275033473968506,"25":0.7017219662666321,"26":0.031870197504758835,"27":-1.6493574380874634,"28":6.5868048667907715,"29":57.184391021728516}}}],"outputLookup":true,"inputLookup":true,"activation":"sigmoid","trainOpts":{"iterations":10,"errorThresh":0.00005,"log":true,"logPeriod":1,"learningRate":0.05,"momentum":0.05,"callbackPeriod":10,"beta1":0.9,"beta2":0.999,"epsilon":1e-8}}