FANN_FIX_2.0
decimal_point=11
num_layers=2
learning_rate=0.700000
connection_rate=1.000000
network_type=0
learning_momentum=0.000000
training_algorithm=2
train_error_function=1
train_stop_function=0
cascade_output_change_fraction=0.010000
quickprop_decay=-0.000100
quickprop_mu=1.750000
rprop_increase_factor=1.200000
rprop_decrease_factor=0.500000
rprop_delta_min=0.000000
rprop_delta_max=50.000000
rprop_delta_zero=0.100000
cascade_output_stagnation_epochs=12
cascade_candidate_change_fraction=0.010000
cascade_candidate_stagnation_epochs=12
cascade_max_out_epochs=150
cascade_min_out_epochs=50
cascade_max_cand_epochs=150
cascade_min_cand_epochs=50
cascade_num_candidate_groups=2
bit_fail_limit=717
cascade_candidate_limit=2048000
cascade_weight_multiplier=819
cascade_activation_functions_count=10
cascade_activation_functions=3 5 7 8 10 11 14 15 16 17 
cascade_activation_steepnesses_count=4
cascade_activation_steepnesses=512 1024 1536 2048 
layer_sizes=513 513 
neurons (num_inputs, activation_function, activation_steepness)=(0, 0, 0) (0, 0, 0) (0, 0, 0) (0, 0, 0) (0, 0, 0) (0, 0, 0) (0, 0, 0) (0, 0, 0) (0, 0, 0) (0, 0, 0) (0, 0, 0) (0, 0, 0) (0, 0, 0) (0, 0, 0) (0, 0, 0) (0, 0, 0) (0, 0, 0) (0, 0, 0) (0, 0, 0) (0, 0, 0) (0, 0, 0) (0, 0, 0) (0, 0, 0) (0, 0, 0) (0, 0, 0) (0, 0, 0) (0, 0, 0) (0, 0, 0) (0, 0, 0) (0, 0, 0) (0, 0, 0) (0, 0, 0) (0, 0, 0) (0, 0, 0) (0, 0, 0) (0, 0, 0) (0, 0, 0) (0, 0, 0) (0, 0, 0) (0, 0, 0) (0, 0, 0) (0, 0, 0) (0, 0, 0) (0, 0, 0) (0, 0, 0) (0, 0, 0) (0, 0, 0) (0, 0, 0) (0, 0, 0) (0, 0, 0) (0, 0, 0) (0, 0, 0) (0, 0, 0) (0, 0, 0) (0, 0, 0) (0, 0, 0) (0, 0, 0) (0, 0, 0) (0, 0, 0) (0, 0, 0) (0, 0, 0) (0, 0, 0) (0, 0, 0) (0, 0, 0) (0, 0, 0) (0, 0, 0) (0, 0, 0) (0, 0, 0) (0, 0, 0) (0, 0, 0) (0, 0, 0) (0, 0, 0) (0, 0, 0) (0, 0, 0) (0, 0, 0) (0, 0, 0) (0, 0, 0) (0, 0, 0) (0, 0, 0) (0, 0, 0) (0, 0, 0) (0, 0, 0) (0, 0, 0) (0, 0, 0) (0, 0, 0) (0, 0, 0) (0, 0, 0) (0, 0, 0) (0, 0, 0) (0, 0, 0) (0, 0, 0) (0, 0, 0) (0, 0, 0) (0, 0, 0) (0, 0, 0) (0, 0, 0) (0, 0, 0) (0, 0, 0) (0, 0, 0) (0, 0, 0) (0, 0, 0) (0, 0, 0) (0, 0, 0) (0, 0, 0) (0, 0, 0) (0, 0, 0) (0, 0, 0) (0, 0, 0) (0, 0, 0) (0, 0, 0) (0, 0, 0) (0, 0, 0) (0, 0, 0) (0, 0, 0) (0, 0, 0) (0, 0, 0) (0, 0, 0) (0, 0, 0) (0, 0, 0) (0, 0, 0) (0, 0, 0) (0, 0, 0) (0, 0, 0) (0, 0, 0) (0, 0, 0) (0, 0, 0) (0, 0, 0) (0, 0, 0) (0, 0, 0) (0, 0, 0) (0, 0, 0) (0, 0, 0) (0, 0, 0) (0, 0, 0) (0, 0, 0) (0, 0, 0) (0, 0, 0) (0, 0, 0) (0, 0, 0) (0, 0, 0) (0, 0, 0) (0, 0, 0) (0, 0, 0) (0, 0, 0) (0, 0, 0) (0, 0, 0) (0, 0, 0) (0, 0, 0) (0, 0, 0) (0, 0, 0) (0, 0, 0) (0, 0, 0) (0, 0, 0) (0, 0, 0) (0, 0, 0) (0, 0, 0) (0, 0, 0) (0, 0, 0) (0, 0, 0) (0, 0, 0) (0, 0, 0) (0, 0, 0) (0, 0, 0) (0, 0, 0) (0, 0, 0) (0, 0, 0) (0, 0, 0) (0, 0, 0) (0, 0, 0) (0, 0, 0) (0, 0, 0) (0, 0, 0) (0, 0, 0) (0, 0, 0) (0, 0, 0) (0, 0, 0) (0, 0, 0) (0, 0, 0) (0, 0, 0) (0, 0, 0) (0, 0, 0) (0, 0, 0) (0, 0, 0) (0, 0, 0) (0, 0, 0) (0, 0, 0) (0, 0, 0) (0, 0, 0) (0, 0, 0) (0, 0, 0) (0, 0, 0) (0, 0, 0) (0, 0, 0) (0, 0, 0) (0, 0, 0) (0, 0, 0) (0, 0, 0) (0, 0, 0) (0, 0, 0) (0, 0, 0) (0, 0, 0) (0, 0, 0) (0, 0, 0) (0, 0, 0) (0, 0, 0) (0, 0, 0) (0, 0, 0) (0, 0, 0) (0, 0, 0) (0, 0, 0) (0, 0, 0) (0, 0, 0) (0, 0, 0) (0, 0, 0) (0, 0, 0) (0, 0, 0) (0, 0, 0) (0, 0, 0) (0, 0, 0) (0, 0, 0) (0, 0, 0) (0, 0, 0) (0, 0, 0) (0, 0, 0) (0, 0, 0) (0, 0, 0) (0, 0, 0) (0, 0, 0) (0, 0, 0) (0, 0, 0) (0, 0, 0) (0, 0, 0) (0, 0, 0) (0, 0, 0) (0, 0, 0) (0, 0, 0) (0, 0, 0) (0, 0, 0) (0, 0, 0) (0, 0, 0) (0, 0, 0) (0, 0, 0) (0, 0, 0) (0, 0, 0) (0, 0, 0) (0, 0, 0) (0, 0, 0) (0, 0, 0) (0, 0, 0) (0, 0, 0) (0, 0, 0) (0, 0, 0) (0, 0, 0) (0, 0, 0) (0, 0, 0) (0, 0, 0) (0, 0, 0) (0, 0, 0) (0, 0, 0) (0, 0, 0) (0, 0, 0) (0, 0, 0) (0, 0, 0) (0, 0, 0) (0, 0, 0) (0, 0, 0) (0, 0, 0) (0, 0, 0) (0, 0, 0) (0, 0, 0) (0, 0, 0) (0, 0, 0) (0, 0, 0) (0, 0, 0) (0, 0, 0) (0, 0, 0) (0, 0, 0) (0, 0, 0) (0, 0, 0) (0, 0, 0) (0, 0, 0) (0, 0, 0) (0, 0, 0) (0, 0, 0) (0, 0, 0) (0, 0, 0) (0, 0, 0) (0, 0, 0) (0, 0, 0) (0, 0, 0) (0, 0, 0) (0, 0, 0) (0, 0, 0) (0, 0, 0) (0, 0, 0) (0, 0, 0) (0, 0, 0) (0, 0, 0) (0, 0, 0) (0, 0, 0) (0, 0, 0) (0, 0, 0) (0, 0, 0) (0, 0, 0) (0, 0, 0) (0, 0, 0) (0, 0, 0) (0, 0, 0) (0, 0, 0) (0, 0, 0) (0, 0, 0) (0, 0, 0) (0, 0, 0) (0, 0, 0) (0, 0, 0) (0, 0, 0) (0, 0, 0) (0, 0, 0) (0, 0, 0) (0, 0, 0) (0, 0, 0) (0, 0, 0) (0, 0, 0) (0, 0, 0) (0, 0, 0) (0, 0, 0) (0, 0, 0) (0, 0, 0) (0, 0, 0) (0, 0, 0) (0, 0, 0) (0, 0, 0) (0, 0, 0) (0, 0, 0) (0, 0, 0) (0, 0, 0) (0, 0, 0) (0, 0, 0) (0, 0, 0) (0, 0, 0) (0, 0, 0) (0, 0, 0) (0, 0, 0) (0, 0, 0) (0, 0, 0) (0, 0, 0) (0, 0, 0) (0, 0, 0) (0, 0, 0) (0, 0, 0) (0, 0, 0) (0, 0, 0) (0, 0, 0) (0, 0, 0) (0, 0, 0) (0, 0, 0) (0, 0, 0) (0, 0, 0) (0, 0, 0) (0, 0, 0) (0, 0, 0) (0, 0, 0) (0, 0, 0) (0, 0, 0) (0, 0, 0) (0, 0, 0) (0, 0, 0) (0, 0, 0) (0, 0, 0) (0, 0, 0) (0, 0, 0) (0, 0, 0) (0, 0, 0) (0, 0, 0) (0, 0, 0) (0, 0, 0) (0, 0, 0) (0, 0, 0) (0, 0, 0) (0, 0, 0) (0, 0, 0) (0, 0, 0) (0, 0, 0) (0, 0, 0) (0, 0, 0) (0, 0, 0) (0, 0, 0) (0, 0, 0) (0, 0, 0) (0, 0, 0) (0, 0, 0) (0, 0, 0) (0, 0, 0) (0, 0, 0) (0, 0, 0) (0, 0, 0) (0, 0, 0) (0, 0, 0) (0, 0, 0) (0, 0, 0) (0, 0, 0) (0, 0, 0) (0, 0, 0) (0, 0, 0) (0, 0, 0) (0, 0, 0) (0, 0, 0) (0, 0, 0) (0, 0, 0) (0, 0, 0) (0, 0, 0) (0, 0, 0) (0, 0, 0) (0, 0, 0) (0, 0, 0) (0, 0, 0) (0, 0, 0) (0, 0, 0) (0, 0, 0) (0, 0, 0) (0, 0, 0) (0, 0, 0) (0, 0, 0) (0, 0, 0) (0, 0, 0) (0, 0, 0) (0, 0, 0) (0, 0, 0) (0, 0, 0) (0, 0, 0) (0, 0, 0) (0, 0, 0) (0, 0, 0) (0, 0, 0) (0, 0, 0) (0, 0, 0) (0, 0, 0) (0, 0, 0) (0, 0, 0) (0, 0, 0) (0, 0, 0) (0, 0, 0) (0, 0, 0) (0, 0, 0) (0, 0, 0) (0, 0, 0) (0, 0, 0) (0, 0, 0) (0, 0, 0) (0, 0, 0) (0, 0, 0) (0, 0, 0) (0, 0, 0) (0, 0, 0) (0, 0, 0) (0, 0, 0) (0, 0, 0) (0, 0, 0) (0, 0, 0) (0, 0, 0) (0, 0, 0) (0, 0, 0) (0, 0, 0) (0, 0, 0) (0, 0, 0) (0, 0, 0) (0, 0, 0) (0, 0, 0) (0, 0, 0) (0, 0, 0) (0, 0, 0) (0, 0, 0) (0, 0, 0) (0, 0, 0) (0, 0, 0) (0, 0, 0) (0, 0, 0) (0, 0, 0) (0, 0, 0) (0, 0, 0) (0, 0, 0) (0, 0, 0) (0, 0, 0) (0, 0, 0) (0, 0, 0) (0, 0, 0) (0, 0, 0) (0, 0, 0) (0, 0, 0) (0, 0, 0) (0, 0, 0) (0, 0, 0) (0, 0, 0) (0, 0, 0) (0, 0, 0) (0, 0, 0) (0, 0, 0) (0, 0, 0) (0, 0, 0) (0, 0, 0) (0, 0, 0) (0, 0, 0) (0, 0, 0) (0, 0, 0) (0, 0, 0) (0, 0, 0) (0, 0, 0) (0, 0, 0) (0, 0, 0) (0, 0, 0) (0, 0, 0) (0, 0, 0) (0, 0, 0) (513, 3, 1024) (513, 3, 1024) (513, 3, 1024) (513, 3, 1024) (513, 3, 1024) (513, 3, 1024) (513, 3, 1024) (513, 3, 1024) (513, 3, 1024) (513, 3, 1024) (513, 3, 1024) (513, 3, 1024) (513, 3, 1024) (513, 3, 1024) (513, 3, 1024) (513, 3, 1024) (513, 3, 1024) (513, 3, 1024) (513, 3, 1024) (513, 3, 1024) (513, 3, 1024) (513, 3, 1024) (513, 3, 1024) (513, 3, 1024) (513, 3, 1024) (513, 3, 1024) (513, 3, 1024) (513, 3, 1024) (513, 3, 1024) (513, 3, 1024) (513, 3, 1024) (513, 3, 1024) (513, 3, 1024) (513, 3, 1024) (513, 3, 1024) (513, 3, 1024) (513, 3, 1024) (513, 3, 1024) (513, 3, 1024) (513, 3, 1024) (513, 3, 1024) (513, 3, 1024) (513, 3, 1024) (513, 3, 1024) (513, 3, 1024) (513, 3, 1024) (513, 3, 1024) (513, 3, 1024) (513, 3, 1024) (513, 3, 1024) (513, 3, 1024) (513, 3, 1024) (513, 3, 1024) (513, 3, 1024) (513, 3, 1024) (513, 3, 1024) (513, 3, 1024) (513, 3, 1024) (513, 3, 1024) (513, 3, 1024) (513, 3, 1024) (513, 3, 1024) (513, 3, 1024) (513, 3, 1024) (513, 3, 1024) (513, 3, 1024) (513, 3, 1024) (513, 3, 1024) (513, 3, 1024) (513, 3, 1024) (513, 3, 1024) (513, 3, 1024) (513, 3, 1024) (513, 3, 1024) (513, 3, 1024) (513, 3, 1024) (513, 3, 1024) (513, 3, 1024) (513, 3, 1024) (513, 3, 1024) (513, 3, 1024) (513, 3, 1024) (513, 3, 1024) (513, 3, 1024) (513, 3, 1024) (513, 3, 1024) (513, 3, 1024) (513, 3, 1024) (513, 3, 1024) (513, 3, 1024) (513, 3, 1024) (513, 3, 1024) (513, 3, 1024) (513, 3, 1024) (513, 3, 1024) (513, 3, 1024) (513, 3, 1024) (513, 3, 1024) (513, 3, 1024) (513, 3, 1024) (513, 3, 1024) (513, 3, 1024) (513, 3, 1024) (513, 3, 1024) (513, 3, 1024) (513, 3, 1024) (513, 3, 1024) (513, 3, 1024) (513, 3, 1024) (513, 3, 1024) (513, 3, 1024) (513, 3, 1024) (513, 3, 1024) (513, 3, 1024) (513, 3, 1024) (513, 3, 1024) (513, 3, 1024) (513, 3, 1024) (513, 3, 1024) (513, 3, 1024) (513, 3, 1024) (513, 3, 1024) (513, 3, 1024) (513, 3, 1024) (513, 3, 1024) (513, 3, 1024) (513, 3, 1024) (513, 3, 1024) (513, 3, 1024) (513, 3, 1024) (513, 3, 1024) (513, 3, 1024) (513, 3, 1024) (513, 3, 1024) (513, 3, 1024) (513, 3, 1024) (513, 3, 1024) (513, 3, 1024) (513, 3, 1024) (513, 3, 1024) (513, 3, 1024) (513, 3, 1024) (513, 3, 1024) (513, 3, 1024) (513, 3, 1024) (513, 3, 1024) (513, 3, 1024) (513, 3, 1024) (513, 3, 1024) (513, 3, 1024) (513, 3, 1024) (513, 3, 1024) (513, 3, 1024) (513, 3, 1024) (513, 3, 1024) (513, 3, 1024) (513, 3, 1024) (513, 3, 1024) (513, 3, 1024) (513, 3, 1024) (513, 3, 1024) (513, 3, 1024) (513, 3, 1024) (513, 3, 1024) (513, 3, 1024) (513, 3, 1024) (513, 3, 1024) (513, 3, 1024) (513, 3, 1024) (513, 3, 1024) (513, 3, 1024) (513, 3, 1024) (513, 3, 1024) (513, 3, 1024) (513, 3, 1024) (513, 3, 1024) (513, 3, 1024) (513, 3, 1024) (513, 3, 1024) (513, 3, 1024) (513, 3, 1024) (513, 3, 1024) (513, 3, 1024) (513, 3, 1024) (513, 3, 1024) (513, 3, 1024) (513, 3, 1024) (513, 3, 1024) (513, 3, 1024) (513, 3, 1024) (513, 3, 1024) (513, 3, 1024) (513, 3, 1024) (513, 3, 1024) (513, 3, 1024) (513, 3, 1024) (513, 3, 1024) (513, 3, 1024) (513, 3, 1024) (513, 3, 1024) (513, 3, 1024) (513, 3, 1024) (513, 3, 1024) (513, 3, 1024) (513, 3, 1024) (513, 3, 1024) (513, 3, 1024) (513, 3, 1024) (513, 3, 1024) (513, 3, 1024) (513, 3, 1024) (513, 3, 1024) (513, 3, 1024) (513, 3, 1024) (513, 3, 1024) (513, 3, 1024) (513, 3, 1024) (513, 3, 1024) (513, 3, 1024) (513, 3, 1024) (513, 3, 1024) (513, 3, 1024) (513, 3, 1024) (513, 3, 1024) (513, 3, 1024) (513, 3, 1024) (513, 3, 1024) (513, 3, 1024) (513, 3, 1024) (513, 3, 1024) (513, 3, 1024) (513, 3, 1024) (513, 3, 1024) (513, 3, 1024) (513, 3, 1024) (513, 3, 1024) (513, 3, 1024) (513, 3, 1024) (513, 3, 1024) (513, 3, 1024) (513, 3, 1024) (513, 3, 1024) (513, 3, 1024) (513, 3, 1024) (513, 3, 1024) (513, 3, 1024) (513, 3, 1024) (513, 3, 1024) (513, 3, 1024) (513, 3, 1024) (513, 3, 1024) (513, 3, 1024) (513, 3, 1024) (513, 3, 1024) (513, 3, 1024) (513, 3, 1024) (513, 3, 1024) (513, 3, 1024) (513, 3, 1024) (513, 3, 1024) (513, 3, 1024) (513, 3, 1024) (513, 3, 1024) (513, 3, 1024) (513, 3, 1024) (513, 3, 1024) (513, 3, 1024) (513, 3, 1024) (513, 3, 1024) (513, 3, 1024) (513, 3, 1024) (513, 3, 1024) (513, 3, 1024) (513, 3, 1024) (513, 3, 1024) (513, 3, 1024) (513, 3, 1024) (513, 3, 1024) (513, 3, 1024) (513, 3, 1024) (513, 3, 1024) (513, 3, 1024) (513, 3, 1024) (513, 3, 1024) (513, 3, 1024) (513, 3, 1024) (513, 3, 1024) (513, 3, 1024) (513, 3, 1024) (513, 3, 1024) (513, 3, 1024) (513, 3, 1024) (513, 3, 1024) (513, 3, 1024) (513, 3, 1024) (513, 3, 1024) (513, 3, 1024) (513, 3, 1024) (513, 3, 1024) (513, 3, 1024) (513, 3, 1024) (513, 3, 1024) (513, 3, 1024) (513, 3, 1024) (513, 3, 1024) (513, 3, 1024) (513, 3, 1024) (513, 3, 1024) (513, 3, 1024) (513, 3, 1024) (513, 3, 1024) (513, 3, 1024) (513, 3, 1024) (513, 3, 1024) (513, 3, 1024) (513, 3, 1024) (513, 3, 1024) (513, 3, 1024) (513, 3, 1024) (513, 3, 1024) (513, 3, 1024) (513, 3, 1024) (513, 3, 1024) (513, 3, 1024) (513, 3, 1024) (513, 3, 1024) (513, 3, 1024) (513, 3, 1024) (513, 3, 1024) (513, 3, 1024) (513, 3, 1024) (513, 3, 1024) (513, 3, 1024) (513, 3, 1024) (513, 3, 1024) (513, 3, 1024) (513, 3, 1024) (513, 3, 1024) (513, 3, 1024) (513, 3, 1024) (513, 3, 1024) (513, 3, 1024) (513, 3, 1024) (513, 3, 1024) (513, 3, 1024) (513, 3, 1024) (513, 3, 1024) (513, 3, 1024) (513, 3, 1024) (513, 3, 1024) (513, 3, 1024) (513, 3, 1024) (513, 3, 1024) (513, 3, 1024) (513, 3, 1024) (513, 3, 1024) (513, 3, 1024) (513, 3, 1024) (513, 3, 1024) (513, 3, 1024) (513, 3, 1024) (513, 3, 1024) (513, 3, 1024) (513, 3, 1024) (513, 3, 1024) (513, 3, 1024) (513, 3, 1024) (513, 3, 1024) (513, 3, 1024) (513, 3, 1024) (513, 3, 1024) (513, 3, 1024) (513, 3, 1024) (513, 3, 1024) (513, 3, 1024) (513, 3, 1024) (513, 3, 1024) (513, 3, 1024) (513, 3, 1024) (513, 3, 1024) (513, 3, 1024) (513, 3, 1024) (513, 3, 1024) (513, 3, 1024) (513, 3, 1024) (513, 3, 1024) (513, 3, 1024) (513, 3, 1024) (513, 3, 1024) (513, 3, 1024) (513, 3, 1024) (513, 3, 1024) (513, 3, 1024) (513, 3, 1024) (513, 3, 1024) (513, 3, 1024) (513, 3, 1024) (513, 3, 1024) (513, 3, 1024) (513, 3, 1024) (513, 3, 1024) (513, 3, 1024) (513, 3, 1024) (513, 3, 1024) (513, 3, 1024) (513, 3, 1024) (513, 3, 1024) (513, 3, 1024) (513, 3, 1024) (513, 3, 1024) (513, 3, 1024) (513, 3, 1024) (513, 3, 1024) (513, 3, 1024) (513, 3, 1024) (513, 3, 1024) (513, 3, 1024) (513, 3, 1024) (513, 3, 1024) (513, 3, 1024) (513, 3, 1024) (513, 3, 1024) (513, 3, 1024) (513, 3, 1024) (513, 3, 1024) (513, 3, 1024) (513, 3, 1024) (513, 3, 1024) (513, 3, 1024) (513, 3, 1024) (513, 3, 1024) (513, 3, 1024) (513, 3, 1024) (513, 3, 1024) (513, 3, 1024) (513, 3, 1024) (513, 3, 1024) (513, 3, 1024) (513, 3, 1024) (513, 3, 1024) (513, 3, 1024) (513, 3, 1024) (513, 3, 1024) (513, 3, 1024) (513, 3, 1024) (513, 3, 1024) (513, 3, 1024) (513, 3, 1024) (513, 3, 1024) (513, 3, 1024) (513, 3, 1024) (513, 3, 1024) (513, 3, 1024) (513, 3, 1024) (513, 3, 1024) (513, 3, 1024) (513, 3, 1024) (513, 3, 1024) (513, 3, 1024) (513, 3, 1024) (513, 3, 1024) (513, 3, 1024) (513, 3, 1024) (513, 3, 1024) (513, 3, 1024) (513, 3, 1024) (513, 3, 1024) (513, 3, 1024) (513, 3, 1024) (513, 3, 1024) (513, 3, 1024) (513, 3, 1024) (513, 3, 1024) (513, 3, 1024) (513, 3, 1024) (513, 3, 1024) (513, 3, 1024) (513, 3, 1024) (513, 3, 1024) (513, 3, 1024) (513, 3, 1024) (513, 3, 1024) (513, 3, 1024) (513, 3, 1024) (513, 3, 1024) (513, 3, 1024) (513, 3, 1024) (513, 3, 1024) (513, 3, 1024) (513, 3, 1024) (513, 3, 1024) (513, 3, 1024) (513, 3, 1024) (513, 3, 1024) (513, 3, 1024) (513, 3, 1024) (513, 3, 1024) (513, 3, 1024) (513, 3, 1024) (513, 3, 1024) (513, 3, 1024) (513, 3, 1024) (513, 3, 1024) (513, 3, 1024) (513, 3, 1024) (513, 3, 1024) (513, 3, 1024) (513, 3, 1024) (513, 3, 1024) (513, 3, 1024) (513, 3, 1024) (513, 3, 1024) (0, 3, 0) 
connections (connected_to_neuron, weight)=(0, -373) (1, -147) (2, -360) (3, -262) (4, -433) (5, -322) (6, -170) (7, -481) (8, -177) (9, -156) (10, -296) (11, -393) (12, -356) (13, -175) (14, -498) (15, -212) (16, -328) (17, -381) (18, -348) (19, -453) (20, -344) (21, -226) (22, -277) (23, -215) (24, -123) (25, -466) (26, -319) (27, -423) (28, -278) (29, -223) (30, -276) (31, -131) (32, -259) (33, -115) (34, -281) (35, -171) (36, -325) (37, -340) (38, -131) (39, -390) (40, -385) (41, -316) (42, -263) (43, -220) (44, -380) (45, -240) (46, -320) (47, -187) (48, -510) (49, -147) (50, -119) (51, -334) (52, -262) (53, -285) (54, -437) (55, -273) (56, -229) (57, -235) (58, -175) (59, -397) (60, -347) (61, -339) (62, -416) (63, -495) (64, -343) (65, -177) (66, -145) (67, -147) (68, -405) (69, -165) (70, -426) (71, -269) (72, -370) (73, -168) (74, -377) (75, -229) (76, -297) (77, -177) (78, -305) (79, -286) (80, -213) (81, -313) (82, -508) (83, -363) (84, -486) (85, -425) (86, -115) (87, -195) (88, -139) (89, -179) (90, -480) (91, -375) (92, -407) (93, -375) (94, -349) (95, -229) (96, -441) (97, -383) (98, -265) (99, -325) (100, -437) (101, -170) (102, -483) (103, -286) (104, -226) (105, -339) (106, -404) (107, -412) (108, -405) (109, -188) (110, -177) (111, -506) (112, -390) (113, -164) (114, -349) (115, -355) (116, -478) (117, -353) (118, -438) (119, -505) (120, -421) (121, -397) (122, -360) (123, -307) (124, -252) (125, -188) (126, -425) (127, -172) (128, -460) (129, -168) (130, -385) (131, -376) (132, -227) (133, -347) (134, -141) (135, -342) (136, -165) (137, -434) (138, -232) (139, -459) (140, -511) (141, -298) (142, -444) (143, -380) (144, -351) (145, -272) (146, -214) (147, -307) (148, -514) (149, -131) (150, -292) (151, -414) (152, -417) (153, -131) (154, -200) (155, -148) (156, -207) (157, -513) (158, -208) (159, -146) (160, -161) (161, -482) (162, -411) (163, -276) (164, -308) (165, -442) (166, -506) (167, -362) (168, -355) (169, -218) (170, -300) (171, -345) (172, -404) (173, -223) (174, -204) (175, -234) (176, -384) (177, -306) (178, -430) (179, -377) (180, -326) (181, -201) (182, -270) (183, -222) (184, -221) (185, -359) (186, -259) (187, -317) (188, -351) (189, -356) (190, -352) (191, -401) (192, -318) (193, -243) (194, -156) (195, -515) (196, -163) (197, -141) (198, -356) (199, -407) (200, -248) (201, -135) (202, -230) (203, -131) (204, -247) (205, -323) (206, -254) (207, -519) (208, -517) (209, -163) (210, -375) (211, -322) (212, -253) (213, -125) (214, -433) (215, -362) (216, -372) (217, -171) (218, -158) (219, -202) (220, -416) (221, -399) (222, -491) (223, -213) (224, -120) (225, -126) (226, -207) (227, -172) (228, -156) (229, -452) (230, -468) (231, -293) (232, -475) (233, -177) (234, -313) (235, -201) (236, -389) (237, -455) (238, -200) (239, -385) (240, -507) (241, -464) (242, -187) (243, -239) (244, -477) (245, -509) (246, -489) (247, -328) (248, -160) (249, -127) (250, -419) (251, -465) (252, -414) (253, -390) (254, -157) (255, -423) (256, -405) (257, -253) (258, -484) (259, -450) (260, -184) (261, -431) (262, -222) (263, -138) (264, -496) (265, -424) (266, -228) (267, -364) (268, -358) (269, -317) (270, -229) (271, -344) (272, -260) (273, -304) (274, -472) (275, -216) (276, -292) (277, -440) (278, -433) (279, -341) (280, -456) (281, -332) (282, -284) (283, -349) (284, -201) (285, -330) (286, -251) (287, -494) (288, -472) (289, -214) (290, -424) (291, -134) (292, -123) (293, -125) (294, -161) (295, -509) (296, -438) (297, -278) (298, -352) (299, -275) (300, -484) (301, -469) (302, -508) (303, -223) (304, -253) (305, -459) (306, -328) (307, -434) (308, -378) (309, -241) (310, -253) (311, -313) (312, -461) (313, -426) (314, -141) (315, -141) (316, -236) (317, -280) (318, -115) (319, -186) (320, -383) (321, -427) (322, -210) (323, -395) (324, -441) (325, -260) (326, -383) (327, -358) (328, -427) (329, -214) (330, -113) (331, -389) (332, -162) (333, -509) (334, -501) (335, -303) (336, -448) (337, -308) (338, -216) (339, -305) (340, -438) (341, -358) (342, -507) (343, -378) (344, -263) (345, -127) (346, -408) (347, -388) (348, -296) (349, -412) (350, -463) (351, -158) (352, -318) (353, -152) (354, -442) (355, -238) (356, -300) (357, -304) (358, -485) (359, -206) (360, -406) (361, -487) (362, -484) (363, -457) (364, -475) (365, -464) (366, -239) (367, -402) (368, -251) (369, -344) (370, -186) (371, -168) (372, -181) (373, -172) (374, -435) (375, -333) (376, -188) (377, -322) (378, -200) (379, -373) (380, -213) (381, -142) (382, -420) (383, -420) (384, -182) (385, -341) (386, -137) (387, -371) (388, -124) (389, -511) (390, -465) (391, -419) (392, -477) (393, -428) (394, -354) (395, -431) (396, -371) (397, -482) (398, -312) (399, -511) (400, -305) (401, -387) (402, -158) (403, -375) (404, -448) (405, -482) (406, -187) (407, -116) (408, -283) (409, -276) (410, -378) (411, -385) (412, -306) (413, -277) (414, -284) (415, -378) (416, -507) (417, -310) (418, -336) (419, -628) (420, -300) (421, -172) (422, -526) (423, -256) (424, -489) (425, -251) (426, -167) (427, -339) (428, -212) (429, -368) (430, -330) (431, -406) (432, -234) (433, -377) (434, -260) (435, -162) (436, -338) (437, -335) (438, -166) (439, -510) (440, -500) (441, -433) (442, -374) (443, -285) (444, -189) (445, -138) (446, -142) (447, -284) (448, -989) (449, -911) (450, -283) (451, -769) (452, -972) (453, -589) (454, -261) (455, -287) (456, -211) (457, -316) (458, -515) (459, -420) (460, -271) (461, -432) (462, -306) (463, -394) (464, -288) (465, -346) (466, -336) (467, -406) (468, -160) (469, -391) (470, -396) (471, -139) (472, -303) (473, -249) (474, -313) (475, -382) (476, -275) (477, -344) (478, -446) (479, -500) (480, -491) (481, -509) (482, -504) (483, -289) (484, -469) (485, -244) (486, -465) (487, -160) (488, -449) (489, -459) (490, -360) (491, -500) (492, -262) (493, -446) (494, -374) (495, -983) (496, -380) (497, -490) (498, -215) (499, -320) (500, -360) (501, -499) (502, -348) (503, -143) (504, -228) (505, -140) (506, -413) (507, -392) (508, -373) (509, -338) (510, -371) (511, -342) (512, -3014) (0, -355) (1, -520) (2, -275) (3, -488) (4, -464) (5, -324) (6, -416) (7, -401) (8, -163) (9, -395) (10, -142) (11, -498) (12, -140) (13, -361) (14, -249) (15, -518) (16, -464) (17, -458) (18, -358) (19, -443) (20, -285) (21, -390) (22, -150) (23, -314) (24, -282) (25, -430) (26, -166) (27, -509) (28, -281) (29, -397) (30, -315) (31, -115) (32, -397) (33, -479) (34, -491) (35, -339) (36, -282) (37, -386) (38, -220) (39, -334) (40, -260) (41, -251) (42, -311) (43, -289) (44, -500) (45, -449) (46, -286) (47, -443) (48, -386) (49, -123) (50, -365) (51, -150) (52, -402) (53, -404) (54, -353) (55, -163) (56, -313) (57, -408) (58, -151) (59, -483) (60, -285) (61, -355) (62, -486) (63, -161) (64, -313) (65, -456) (66, -389) (67, -484) (68, -321) (69, -497) (70, -297) (71, -470) (72, -227) (73, -497) (74, -238) (75, -206) (76, -425) (77, -413) (78, -128) (79, -290) (80, -425) (81, -382) (82, -329) (83, -306) (84, -265) (85, -161) (86, -358) (87, -467) (88, -459) (89, -398) (90, -429) (91, -223) (92, -232) (93, -395) (94, -272) (95, -435) (96, -330) (97, -140) (98, -398) (99, -130) (100, -116) (101, -174) (102, -490) (103, -232) (104, -150) (105, -207) (106, -326) (107, -464) (108, -509) (109, -343) (110, -234) (111, -413) (112, -205) (113, -451) (114, -199) (115, -359) (116, -501) (117, -445) (118, -306) (119, -439) (120, -323) (121, -214) (122, -141) (123, -444) (124, -497) (125, -302) (126, -357) (127, -306) (128, -330) (129, -234) (130, -325) (131, -335) (132, -297) (133, -294) (134, -455) (135, -336) (136, -390) (137, -261) (138, -280) (139, -378) (140, -493) (141, -402) (142, -270) (143, -177) (144, -333) (145, -358) (146, -424) (147, -313) (148, -282) (149, -209) (150, -232) (151, -493) (152, -312) (153, -261) (154, -416) (155, -288) (156, -452) (157, -253) (158, -483) (159, -261) (160, -376) (161, -288) (162, -485) (163, -152) (164, -470) (165, -420) (166, -377) (167, -340) (168, -160) (169, -136) (170, -197) (171, -131) (172, -427) (173, -356) (174, -197) (175, -239) (176, -192) (177, -510) (178, -441) (179, -363) (180, -198) (181, -152) (182, -336) (183, -398) (184, -302) (185, -231) (186, -165) (187, -233) (188, -372) (189, -127) (190, -383) (191, -227) (192, -303) (193, -347) (194, -268) (195, -253) (196, -246) (197, -125) (198, -481) (199, -294) (200, -150) (201, -157) (202, -314) (203, -466) (204, -402) (205, -400) (206, -184) (207, -483) (208, -389) (209, -514) (210, -325) (211, -475) (212, -144) (213, -140) (214, -352) (215, -335) (216, -260) (217, -406) (218, -456) (219, -112) (220, -422) (221, -318) (222, -228) (223, -204) (224, -144) (225, -384) (226, -346) (227, -279) (228, -398) (229, -307) (230, -462) (231, -436) (232, -353) (233, -255) (234, -381) (235, -233) (236, -134) (237, -453) (238, -195) (239, -411) (240, -446) (241, -409) (242, -365) (243, -479) (244, -438) (245, -196) (246, -293) (247, -177) (248, -491) (249, -229) (250, -177) (251, -392) (252, -436) (253, -293) (254, -485) (255, -469) (256, -157) (257, -311) (258, -227) (259, -443) (260, -506) (261, -168) (262, -359) (263, -338) (264, -311) (265, -218) (266, -460) (267, -334) (268, -151) (269, -134) (270, -224) (271, -486) (272, -431) (273, -478) (274, -444) (275, -348) (276, -153) (277, -216) (278, -413) (279, -124) (280, -334) (281, -479) (282, -405) (283, -249) (284, -252) (285, -369) (286, -197) (287, -297) (288, -159) (289, -312) (290, -220) (291, -144) (292, -369) (293, -467) (294, -371) (295, -159) (296, -165) (297, -309) (298, -382) (299, -204) (300, -332) (301, -495) (302, -169) (303, -242) (304, -452) (305, -501) (306, -479) (307, -494) (308, -197) (309, -371) (310, -507) (311, -419) (312, -330) (313, -390) (314, -147) (315, -470) (316, -239) (317, -232) (318, -246) (319, -286) (320, -433) (321, -355) (322, -319) (323, -281) (324, -301) (325, -169) (326, -329) (327, -354) (328, -367) (329, -190) (330, -447) (331, -178) (332, -164) (333, -504) (334, -309) (335, -505) (336, -485) (337, -267) (338, -478) (339, -161) (340, -117) (341, -464) (342, -469) (343, -336) (344, -333) (345, -504) (346, -285) (347, -460) (348, -215) (349, -420) (350, -226) (351, -128) (352, -254) (353, -434) (354, -297) (355, -443) (356, -491) (357, -515) (358, -276) (359, -338) (360, -184) (361, -202) (362, -404) (363, -237) (364, -186) (365, -192) (366, -221) (367, -150) (368, -347) (369, -178) (370, -200) (371, -353) (372, -121) (373, -147) (374, -168) (375, -343) (376, -131) (377, -342) (378, -282) (379, -235) (380, -241) (381, -397) (382, -251) (383, -384) (384, -310) (385, -437) (386, -306) (387, -280) (388, -431) (389, -471) (390, -507) (391, -505) (392, -153) (393, -390) (394, -221) (395, -227) (396, -471) (397, -331) (398, -266) (399, -297) (400, -398) (401, -354) (402, -130) (403, -407) (404, -390) (405, -187) (406, -229) (407, -410) (408, -418) (409, -400) (410, -123) (411, -138) (412, -276) (413, -263) (414, -410) (415, -474) (416, -179) (417, -196) (418, -234) (419, -500) (420, -146) (421, -220) (422, -483) (423, -187) (424, -499) (425, -183) (426, -303) (427, -448) (428, -403) (429, -458) (430, -225) (431, -279) (432, -292) (433, -244) (434, -166) (435, -161) (436, -319) (437, -283) (438, -460) (439, -216) (440, -162) (441, -472) (442, -243) (443, -326) (444, -214) (445, -133) (446, -280) (447, -282) (448, -217) (449, -403) (450, -261) (451, -252) (452, -511) (453, -223) (454, -328) (455, -489) (456, -295) (457, -520) (458, -416) (459, -177) (460, -457) (461, -120) (462, -346) (463, -228) (464, -253) (465, -400) (466, -278) (467, -461) (468, -162) (469, -217) (470, -156) (471, -213) (472, -168) (473, -288) (474, -428) (475, -271) (476, -309) (477, -187) (478, -442) (479, -415) (480, -479) (481, -182) (482, -146) (483, -469) (484, -294) (485, -362) (486, -437) (487, -478) (488, -361) (489, -332) (490, -135) (491, -297) (492, -341) (493, -369) (494, -414) (495, -483) (496, -248) (497, -171) (498, -423) (499, -299) (500, -276) (501, -467) (502, -401) (503, -333) (504, -234) (505, -308) (506, -493) (507, -432) (508, -384) (509, -414) (510, -326) (511, -342) (512, -3172) (0, -267) (1, -196) (2, -165) (3, -108) (4, -112) (5, -122) (6, -357) (7, -333) (8, -146) (9, -133) (10, -154) (11, -403) (12, -26) (13, -116) (14, -131) (15, -86) (16, -427) (17, -319) (18, -251) (19, -373) (20, -198) (21, -63) (22, -87) (23, -395) (24, -35) (25, -408) (26, -259) (27, -338) (28, -213) (29, -80) (30, -302) (31, -52) (32, -258) (33, -39) (34, -142) (35, -353) (36, -143) (37, -72) (38, -259) (39, -271) (40, -188) (41, -395) (42, -247) (43, -196) (44, -83) (45, -360) (46, -264) (47, -82) (48, -251) (49, -87) (50, -28) (51, -22) (52, -133) (53, -97) (54, -400) (55, -150) (56, -78) (57, -231) (58, -60) (59, -273) (60, -292) (61, -344) (62, -307) (63, -123) (64, -365) (65, -22) (66, -48) (67, -81) (68, -76) (69, -289) (70, -334) (71, -246) (72, -256) (73, -154) (74, -424) (75, -321) (76, -86) (77, -261) (78, -386) (79, -320) (80, -330) (81, -396) (82, -324) (83, -35) (84, -66) (85, -296) (86, -167) (87, -126) (88, -99) (89, -210) (90, -381) (91, -374) (92, -126) (93, -261) (94, -70) (95, -64) (96, -265) (97, -100) (98, -128) (99, -324) (100, -371) (101, -35) (102, -142) (103, -200) (104, -171) (105, -139) (106, -93) (107, -239) (108, -382) (109, -52) (110, -131) (111, -285) (112, -21) (113, -28) (114, -302) (115, -69) (116, -306) (117, -42) (118, -178) (119, -388) (120, -234) (121, -132) (122, -334) (123, -343) (124, -375) (125, -386) (126, -389) (127, -212) (128, -58) (129, -89) (130, -108) (131, -412) (132, -106) (133, -233) (134, -184) (135, -259) (136, -354) (137, -260) (138, -71) (139, -309) (140, -293) (141, -184) (142, -167) (143, -296) (144, -194) (145, -42) (146, -348) (147, -73) (148, -66) (149, -98) (150, -33) (151, -282) (152, -212) (153, -350) (154, -197) (155, -159) (156, -308) (157, -159) (158, -354) (159, -348) (160, -230) (161, -34) (162, -332) (163, -318) (164, -250) (165, -89) (166, -150) (167, -177) (168, -330) (169, -202) (170, -58) (171, -197) (172, -369) (173, -207) (174, -66) (175, -135) (176, -231) (177, -396) (178, -191) (179, -279) (180, -67) (181, -206) (182, -133) (183, -261) (184, -128) (185, -312) (186, -403) (187, -418) (188, -44) (189, -329) (190, -339) (191, -256) (192, -345) (193, -244) (194, -147) (195, -167) (196, -315) (197, -279) (198, -326) (199, -218) (200, -53) (201, -367) (202, -397) (203, -404) (204, -147) (205, -35) (206, -112) (207, -360) (208, -413) (209, -285) (210, -211) (211, -52) (212, -64) (213, -326) (214, -295) (215, -174) (216, -211) (217, -271) (218, -165) (219, -237) (220, -172) (221, -76) (222, -66) (223, -90) (224, -302) (225, -195) (226, -240) (227, -190) (228, -46) (229, -138) (230, -390) (231, -82) (232, -77) (233, -359) (234, -58) (235, -206) (236, -376) (237, -153) (238, -138) (239, -361) (240, -420) (241, -332) (242, -395) (243, -56) (244, -231) (245, -263) (246, -213) (247, -424) (248, -106) (249, -359) (250, -234) (251, -261) (252, -418) (253, -282) (254, -333) (255, -293) (256, -49) (257, -145) (258, -55) (259, -78) (260, -265) (261, -427) (262, -141) (263, -325) (264, -359) (265, -182) (266, -104) (267, -307) (268, -317) (269, -224) (270, -241) (271, -310) (272, -128) (273, -208) (274, -348) (275, -341) (276, -44) (277, -133) (278, -338) (279, -133) (280, -65) (281, -144) (282, -376) (283, -55) (284, -408) (285, -281) (286, -330) (287, -30) (288, -408) (289, -368) (290, -90) (291, -246) (292, -367) (293, -213) (294, -143) (295, -298) (296, -377) (297, -229) (298, -178) (299, -267) (300, -26) (301, -401) (302, -149) (303, -136) (304, -182) (305, -70) (306, -50) (307, -208) (308, -185) (309, -369) (310, -323) (311, -232) (312, -86) (313, -271) (314, -270) (315, -67) (316, -125) (317, -173) (318, -79) (319, -105) (320, -113) (321, -151) (322, -333) (323, -52) (324, -346) (325, -49) (326, -333) (327, -296) (328, -261) (329, -83) (330, -136) (331, -269) (332, -56) (333, -267) (334, -387) (335, -220) (336, -319) (337, -419) (338, -410) (339, -76) (340, -360) (341, -306) (342, -291) (343, -19) (344, -149) (345, -133) (346, -67) (347, -256) (348, -288) (349, -128) (350, -344) (351, -383) (352, -261) (353, -250) (354, -417) (355, -180) (356, -281) (357, -323) (358, -49) (359, -115) (360, -388) (361, -167) (362, -365) (363, -426) (364, -416) (365, -325) (366, -219) (367, -307) (368, -316) (369, -202) (370, -366) (371, -249) (372, -80) (373, -229) (374, -250) (375, -212) (376, -344) (377, -299) (378, -41) (379, -205) (380, -410) (381, -367) (382, -160) (383, -243) (384, -189) (385, -149) (386, -405) (387, -44) (388, -45) (389, -27) (390, -140) (391, -415) (392, -175) (393, -78) (394, -414) (395, -164) (396, -385) (397, -205) (398, -44) (399, -273) (400, -389) (401, -392) (402, -94) (403, -42) (404, -194) (405, -326) (406, -235) (407, -110) (408, -198) (409, -258) (410, -297) (411, -180) (412, -198) (413, -29) (414, -405) (415, -369) (416, -161) (417, -383) (418, -395) (419, -188) (420, -392) (421, -108) (422, -175) (423, -140) (424, -168) (425, -162) (426, -286) (427, -126) (428, -349) (429, -312) (430, -381) (431, -311) (432, -277) (433, -48) (434, -335) (435, -43) (436, -356) (437, -143) (438, -136) (439, -127) (440, -383) (441, -415) (442, -289) (443, -154) (444, -426) (445, -267) (446, -95) (447, -160) (448, -223) (449, -63) (450, -330) (451, -187) (452, -153) (453, -77) (454, -310) (455, -303) (456, -221) (457, -168) (458, -411) (459, -143) (460, -53) (461, -364) (462, -27) (463, -312) (464, -394) (465, -344) (466, -337) (467, -323) (468, -59) (469, -45) (470, -23) (471, -425) (472, -33) (473, -294) (474, -151) (475, -32) (476, -133) (477, -229) (478, -174) (479, -338) (480, -274) (481, -76) (482, -98) (483, -409) (484, -136) (485, -390) (486, -285) (487, -339) (488, -131) (489, -268) (490, -55) (491, -166) (492, -205) (493, -64) (494, -51) (495, -172) (496, -390) (497, -370) (498, -68) (499, -22) (500, -398) (501, -72) (502, -19) (503, -413) (504, -348) (505, -153) (506, -427) (507, -54) (508, -364) (509, -173) (510, -374) (511, -211) (512, -4592) (0, -138) (1, -286) (2, -443) (3, -510) (4, -143) (5, -355) (6, -214) (7, -393) (8, -392) (9, -362) (10, -171) (11, -438) (12, -395) (13, -325) (14, -400) (15, -338) (16, -375) (17, -404) (18, -308) (19, -429) (20, -405) (21, -294) (22, -350) (23, -130) (24, -293) (25, -386) (26, -476) (27, -449) (28, -333) (29, -259) (30, -253) (31, -360) (32, -434) (33, -176) (34, -349) (35, -466) (36, -420) (37, -451) (38, -339) (39, -291) (40, -292) (41, -398) (42, -208) (43, -166) (44, -202) (45, -496) (46, -393) (47, -466) (48, -379) (49, -180) (50, -374) (51, -263) (52, -363) (53, -204) (54, -282) (55, -135) (56, -479) (57, -237) (58, -473) (59, -291) (60, -386) (61, -205) (62, -130) (63, -299) (64, -269) (65, -368) (66, -244) (67, -168) (68, -298) (69, -471) (70, -348) (71, -479) (72, -348) (73, -444) (74, -125) (75, -439) (76, -420) (77, -407) (78, -384) (79, -278) (80, -476) (81, -238) (82, -430) (83, -317) (84, -331) (85, -191) (86, -341) (87, -289) (88, -317) (89, -293) (90, -468) (91, -181) (92, -387) (93, -487) (94, -369) (95, -135) (96, -334) (97, -501) (98, -192) (99, -111) (100, -451) (101, -429) (102, -479) (103, -279) (104, -352) (105, -493) (106, -198) (107, -251) (108, -379) (109, -471) (110, -418) (111, -334) (112, -188) (113, -326) (114, -130) (115, -407) (116, -406) (117, -360) (118, -175) (119, -202) (120, -132) (121, -122) (122, -272) (123, -407) (124, -498) (125, -119) (126, -431) (127, -311) (128, -509) (129, -512) (130, -311) (131, -440) (132, -420) (133, -270) (134, -198) (135, -252) (136, -242) (137, -284) (138, -392) (139, -510) (140, -234) (141, -289) (142, -322) (143, -311) (144, -504) (145, -341) (146, -198) (147, -389) (148, -181) (149, -261) (150, -479) (151, -201) (152, -272) (153, -230) (154, -498) (155, -249) (156, -238) (157, -408) (158, -449) (159, -227) (160, -400) (161, -239) (162, -146) (163, -299) (164, -397) (165, -233) (166, -440) (167, -119) (168, -406) (169, -311) (170, -517) (171, -119) (172, -489) (173, -319) (174, -319) (175, -472) (176, -139) (177, -406) (178, -340) (179, -208) (180, -146) (181, -298) (182, -299) (183, -307) (184, -416) (185, -275) (186, -445) (187, -133) (188, -163) (189, -373) (190, -249) (191, -451) (192, -501) (193, -283) (194, -230) (195, -378) (196, -405) (197, -149) (198, -385) (199, -290) (200, -349) (201, -381) (202, -298) (203, -317) (204, -179) (205, -506) (206, -268) (207, -207) (208, -391) (209, -496) (210, -304) (211, -425) (212, -273) (213, -491) (214, -212) (215, -168) (216, -246) (217, -136) (218, -190) (219, -297) (220, -398) (221, -328) (222, -228) (223, -379) (224, -500) (225, -347) (226, -236) (227, -383) (228, -385) (229, -510) (230, -152) (231, -213) (232, -370) (233, -339) (234, -419) (235, -438) (236, -324) (237, -165) (238, -124) (239, -193) (240, -140) (241, -317) (242, -507) (243, -302) (244, -288) (245, -198) (246, -359) (247, -422) (248, -223) (249, -438) (250, -199) (251, -510) (252, -244) (253, -315) (254, -368) (255, -223) (256, -141) (257, -492) (258, -495) (259, -415) (260, -481) (261, -126) (262, -516) (263, -330) (264, -353) (265, -414) (266, -248) (267, -156) (268, -468) (269, -260) (270, -238) (271, -497) (272, -466) (273, -224) (274, -278) (275, -233) (276, -311) (277, -116) (278, -134) (279, -423) (280, -442) (281, -222) (282, -412) (283, -165) (284, -426) (285, -259) (286, -277) (287, -456) (288, -230) (289, -251) (290, -350) (291, -190) (292, -266) (293, -345) (294, -409) (295, -508) (296, -238) (297, -136) (298, -143) (299, -185) (300, -285) (301, -270) (302, -162) (303, -230) (304, -383) (305, -328) (306, -352) (307, -174) (308, -332) (309, -375) (310, -485) (311, -254) (312, -485) (313, -376) (314, -308) (315, -390) (316, -114) (317, -474) (318, -325) (319, -232) (320, -204) (321, -154) (322, -311) (323, -359) (324, -388) (325, -199) (326, -346) (327, -515) (328, -223) (329, -378) (330, -180) (331, -397) (332, -127) (333, -230) (334, -516) (335, -399) (336, -447) (337, -347) (338, -461) (339, -259) (340, -201) (341, -426) (342, -401) (343, -165) (344, -281) (345, -188) (346, -444) (347, -284) (348, -141) (349, -249) (350, -405) (351, -233) (352, -292) (353, -195) (354, -481) (355, -159) (356, -283) (357, -306) (358, -154) (359, -395) (360, -163) (361, -222) (362, -271) (363, -179) (364, -341) (365, -266) (366, -467) (367, -267) (368, -501) (369, -407) (370, -415) (371, -181) (372, -312) (373, -295) (374, -235) (375, -482) (376, -371) (377, -159) (378, -245) (379, -400) (380, -296) (381, -129) (382, -113) (383, -477) (384, -213) (385, -482) (386, -116) (387, -385) (388, -268) (389, -158) (390, -259) (391, -320) (392, -269) (393, -418) (394, -388) (395, -499) (396, -163) (397, -333) (398, -246) (399, -144) (400, -220) (401, -139) (402, -214) (403, -420) (404, -323) (405, -338) (406, -381) (407, -173) (408, -385) (409, -514) (410, -462) (411, -161) (412, -122) (413, -463) (414, -117) (415, -224) (416, -425) (417, -230) (418, -606) (419, -280) (420, -168) (421, -235) (422, -489) (423, -327) (424, -133) (425, -247) (426, -305) (427, -185) (428, -469) (429, -440) (430, -218) (431, -168) (432, -468) (433, -320) (434, -477) (435, -270) (436, -137) (437, -337) (438, -331) (439, -411) (440, -330) (441, -273) (442, -460) (443, -341) (444, -215) (445, -466) (446, -454) (447, -228) (448, -1129) (449, -1084) (450, -833) (451, -777) (452, -798) (453, -558) (454, -339) (455, -166) (456, -176) (457, -123) (458, -240) (459, -777) (460, -560) (461, -454) (462, -289) (463, -507) (464, -253) (465, -137) (466, -147) (467, -171) (468, -362) (469, -367) (470, -470) (471, -171) (472, -119) (473, -409) (474, -401) (475, -223) (476, -354) (477, -334) (478, -231) (479, -309) (480, -243) (481, -300) (482, -321) (483, -277) (484, -228) (485, -139) (486, -331) (487, -293) (488, -151) (489, -460) (490, -305) (491, -491) (492, -285) (493, -375) (494, -1021) (495, -971) (496, -508) (497, -512) (498, -378) (499, -241) (500, -251) (501, -327) (502, -301) (503, -259) (504, -215) (505, -181) (506, -370) (507, -458) (508, -404) (509, -490) (510, -247) (511, -126) (512, -2956) (0, -363) (1, -198) (2, -293) (3, -391) (4, -418) (5, -65) (6, -21) (7, -357) (8, -259) (9, -400) (10, -121) (11, -113) (12, -247) (13, -328) (14, -401) (15, -131) (16, -184) (17, -121) (18, -270) (19, -400) (20, -311) (21, -417) (22, -95) (23, -381) (24, -267) (25, -32) (26, -263) (27, -236) (28, -168) (29, -278) (30, -394) (31, -103) (32, -49) (33, -260) (34, -67) (35, -40) (36, -307) (37, -70) (38, -379) (39, -138) (40, -43) (41, -72) (42, -233) (43, -272) (44, -382) (45, -207) (46, -385) (47, -139) (48, -310) (49, -227) (50, -111) (51, -194) (52, -217) (53, -188) (54, -147) (55, -56) (56, -202) (57, -393) (58, -274) (59, -352) (60, -244) (61, -241) (62, -28) (63, -275) (64, -73) (65, -77) (66, -297) (67, -362) (68, -129) (69, -248) (70, -73) (71, -154) (72, -303) (73, -287) (74, -408) (75, -257) (76, -67) (77, -365) (78, -378) (79, -359) (80, -165) (81, -62) (82, -125) (83, -364) (84, -232) (85, -254) (86, -403) (87, -417) (88, -220) (89, -250) (90, -341) (91, -36) (92, -63) (93, -352) (94, -293) (95, -119) (96, -411) (97, -162) (98, -54) (99, -113) (100, -393) (101, -108) (102, -249) (103, -268) (104, -378) (105, -229) (106, -98) (107, -427) (108, -167) (109, -49) (110, -358) (111, -315) (112, -93) (113, -56) (114, -251) (115, -308) (116, -292) (117, -226) (118, -297) (119, -84) (120, -49) (121, -211) (122, -102) (123, -94) (124, -135) (125, -377) (126, -195) (127, -119) (128, -112) (129, -231) (130, -214) (131, -77) (132, -321) (133, -35) (134, -327) (135, -272) (136, -246) (137, -407) (138, -271) (139, -396) (140, -29) (141, -202) (142, -283) (143, -104) (144, -240) (145, -107) (146, -394) (147, -105) (148, -315) (149, -263) (150, -171) (151, -346) (152, -47) (153, -256) (154, -422) (155, -164) (156, -205) (157, -190) (158, -265) (159, -299) (160, -403) (161, -51) (162, -358) (163, -296) (164, -68) (165, -258) (166, -141) (167, -297) (168, -238) (169, -394) (170, -265) (171, -249) (172, -168) (173, -121) (174, -335) (175, -389) (176, -210) (177, -301) (178, -66) (179, -98) (180, -137) (181, -220) (182, -426) (183, -166) (184, -48) (185, -421) (186, -312) (187, -235) (188, -183) (189, -150) (190, -107) (191, -158) (192, -183) (193, -38) (194, -27) (195, -234) (196, -278) (197, -150) (198, -103) (199, -89) (200, -116) (201, -351) (202, -320) (203, -266) (204, -44) (205, -228) (206, -228) (207, -236) (208, -102) (209, -277) (210, -315) (211, -221) (212, -69) (213, -314) (214, -369) (215, -99) (216, -307) (217, -254) (218, -316) (219, -63) (220, -386) (221, -405) (222, -204) (223, -142) (224, -425) (225, -213) (226, -358) (227, -275) (228, -346) (229, -34) (230, -346) (231, -34) (232, -367) (233, -239) (234, -282) (235, -393) (236, -39) (237, -83) (238, -202) (239, -123) (240, -342) (241, -90) (242, -326) (243, -393) (244, -386) (245, -268) (246, -64) (247, -266) (248, -95) (249, -363) (250, -311) (251, -54) (252, -340) (253, -87) (254, -178) (255, -338) (256, -283) (257, -109) (258, -186) (259, -201) (260, -125) (261, -104) (262, -218) (263, -65) (264, -325) (265, -73) (266, -31) (267, -346) (268, -138) (269, -215) (270, -41) (271, -52) (272, -286) (273, -349) (274, -427) (275, -245) (276, -190) (277, -64) (278, -83) (279, -266) (280, -409) (281, -376) (282, -302) (283, -322) (284, -36) (285, -53) (286, -232) (287, -301) (288, -144) (289, -400) (290, -75) (291, -252) (292, -76) (293, -274) (294, -299) (295, -383) (296, -329) (297, -312) (298, -302) (299, -40) (300, -99) (301, -325) (302, -74) (303, -367) (304, -247) (305, -74) (306, -185) (307, -418) (308, -120) (309, -250) (310, -257) (311, -101) (312, -198) (313, -132) (314, -405) (315, -216) (316, -167) (317, -209) (318, -90) (319, -293) (320, -181) (321, -146) (322, -117) (323, -240) (324, -403) (325, -398) (326, -196) (327, -305) (328, -283) (329, -70) (330, -327) (331, -364) (332, -377) (333, -383) (334, -304) (335, -196) (336, -30) (337, -61) (338, -187) (339, -132) (340, -293) (341, -426) (342, -215) (343, -63) (344, -130) (345, -192) (346, -261) (347, -279) (348, -384) (349, -333) (350, -145) (351, -138) (352, -52) (353, -244) (354, -360) (355, -28) (356, -215) (357, -128) (358, -315) (359, -70) (360, -180) (361, -214) (362, -416) (363, -129) (364, -170) (365, -293) (366, -307) (367, -182) (368, -336) (369, -66) (370, -295) (371, -201) (372, -65) (373, -83) (374, -246) (375, -177) (376, -257) (377, -80) (378, -29) (379, -214) (380, -395) (381, -156) (382, -333) (383, -20) (384, -383) (385, -265) (386, -29) (387, -170) (388, -375) (389, -326) (390, -223) (391, -128) (392, -113) (393, -212) (394, -239) (395, -265) (396, -77) (397, -118) (398, -19) (399, -395) (400, -167) (401, -296) (402, -168) (403, -213) (404, -361) (405, -396) (406, -373) (407, -191) (408, -49) (409, -384) (410, -387) (411, -426) (412, -113) (413, -293) (414, -19) (415, -68) (416, -131) (417, -30) (418, -221) (419, -79) (420, -339) (421, -426) (422, -188) (423, -24) (424, -210) (425, -409) (426, -271) (427, -269) (428, -100) (429, -272) (430, -236) (431, -249) (432, -141) (433, -386) (434, -34) (435, -75) (436, -355) (437, -389) (438, -249) (439, -386) (440, -346) (441, -208) (442, -385) (443, -31) (444, -73) (445, -386) (446, -82) (447, -186) (448, -399) (449, -285) (450, -247) (451, -310) (452, -283) (453, -417) (454, -317) (455, -66) (456, -399) (457, -160) (458, -317) (459, -72) (460, -415) (461, -126) (462, -302) (463, -129) (464, -85) (465, -319) (466, -186) (467, -422) (468, -281) (469, -417) (470, -381) (471, -199) (472, -198) (473, -339) (474, -212) (475, -253) (476, -298) (477, -276) (478, -422) (479, -269) (480, -133) (481, -241) (482, -152) (483, -399) (484, -231) (485, -41) (486, -37) (487, -203) (488, -184) (489, -336) (490, -256) (491, -172) (492, -35) (493, -131) (494, -283) (495, -102) (496, -23) (497, -42) (498, -96) (499, -286) (500, -31) (501, -50) (502, -57) (503, -211) (504, -371) (505, -252) (506, -37) (507, -242) (508, -100) (509, -31) (510, -84) (511, -216) (512, -4615) (0, -312) (1, -281) (2, -152) (3, -335) (4, -300) (5, -337) (6, -501) (7, -209) (8, -166) (9, -245) (10, -226) (11, -279) (12, -510) (13, -310) (14, -284) (15, -124) (16, -388) (17, -142) (18, -138) (19, -420) (20, -181) (21, -331) (22, -364) (23, -415) (24, -350) (25, -178) (26, -498) (27, -364) (28, -244) (29, -286) (30, -191) (31, -445) (32, -456) (33, -232) (34, -259) (35, -235) (36, -457) (37, -239) (38, -333) (39, -511) (40, -374) (41, -447) (42, -270) (43, -363) (44, -236) (45, -442) (46, -376) (47, -513) (48, -473) (49, -402) (50, -412) (51, -134) (52, -213) (53, -256) (54, -438) (55, -452) (56, -323) (57, -415) (58, -295) (59, -456) (60, -180) (61, -374) (62, -380) (63, -116) (64, -495) (65, -118) (66, -239) (67, -431) (68, -246) (69, -461) (70, -422) (71, -508) (72, -388) (73, -170) (74, -350) (75, -512) (76, -502) (77, -205) (78, -505) (79, -454) (80, -496) (81, -396) (82, -477) (83, -188) (84, -131) (85, -393) (86, -119) (87, -343) (88, -287) (89, -302) (90, -278) (91, -357) (92, -156) (93, -137) (94, -361) (95, -130) (96, -143) (97, -489) (98, -449) (99, -277) (100, -429) (101, -350) (102, -264) (103, -296) (104, -409) (105, -503) (106, -288) (107, -390) (108, -187) (109, -271) (110, -323) (111, -163) (112, -147) (113, -279) (114, -239) (115, -167) (116, -151) (117, -247) (118, -398) (119, -327) (120, -438) (121, -155) (122, -163) (123, -482) (124, -181) (125, -413) (126, -501) (127, -212) (128, -381) (129, -429) (130, -378) (131, -290) (132, -258) (133, -122) (134, -475) (135, -146) (136, -514) (137, -241) (138, -425) (139, -180) (140, -402) (141, -227) (142, -232) (143, -437) (144, -394) (145, -360) (146, -493) (147, -434) (148, -496) (149, -370) (150, -241) (151, -413) (152, -414) (153, -293) (154, -374) (155, -483) (156, -185) (157, -354) (158, -175) (159, -455) (160, -262) (161, -442) (162, -224) (163, -409) (164, -453) (165, -178) (166, -444) (167, -446) (168, -308) (169, -348) (170, -515) (171, -188) (172, -464) (173, -226) (174, -514) (175, -337) (176, -474) (177, -486) (178, -251) (179, -449) (180, -335) (181, -380) (182, -341) (183, -228) (184, -152) (185, -194) (186, -191) (187, -226) (188, -437) (189, -255) (190, -160) (191, -178) (192, -176) (193, -273) (194, -476) (195, -517) (196, -339) (197, -399) (198, -442) (199, -126) (200, -227) (201, -436) (202, -203) (203, -170) (204, -141) (205, -196) (206, -396) (207, -504) (208, -161) (209, -126) (210, -433) (211, -385) (212, -395) (213, -253) (214, -502) (215, -436) (216, -336) (217, -173) (218, -142) (219, -252) (220, -316) (221, -190) (222, -319) (223, -381) (224, -352) (225, -274) (226, -377) (227, -170) (228, -153) (229, -298) (230, -184) (231, -269) (232, -214) (233, -276) (234, -327) (235, -243) (236, -360) (237, -202) (238, -227) (239, -410) (240, -217) (241, -139) (242, -275) (243, -501) (244, -280) (245, -256) (246, -416) (247, -505) (248, -318) (249, -447) (250, -236) (251, -113) (252, -116) (253, -444) (254, -382) (255, -357) (256, -198) (257, -238) (258, -415) (259, -240) (260, -425) (261, -488) (262, -397) (263, -118) (264, -243) (265, -203) (266, -250) (267, -492) (268, -294) (269, -365) (270, -382) (271, -400) (272, -393) (273, -135) (274, -380) (275, -152) (276, -280) (277, -275) (278, -136) (279, -487) (280, -201) (281, -261) (282, -488) (283, -206) (284, -185) (285, -349) (286, -451) (287, -271) (288, -476) (289, -346) (290, -399) (291, -380) (292, -313) (293, -275) (294, -387) (295, -445) (296, -367) (297, -116) (298, -416) (299, -140) (300, -370) (301, -277) (302, -428) (303, -242) (304, -301) (305, -287) (306, -283) (307, -470) (308, -451) (309, -308) (310, -436) (311, -131) (312, -458) (313, -403) (314, -226) (315, -121) (316, -232) (317, -156) (318, -281) (319, -187) (320, -391) (321, -159) (322, -457) (323, -183) (324, -323) (325, -323) (326, -517) (327, -169) (328, -327) (329, -412) (330, -198) (331, -177) (332, -167) (333, -515) (334, -307) (335, -357) (336, -281) (337, -479) (338, -306) (339, -211) (340, -266) (341, -221) (342, -231) (343, -202) (344, -513) (345, -346) (346, -212) (347, -224) (348, -391) (349, -382) (350, -300) (351, -261) (352, -430) (353, -236) (354, -333) (355, -233) (356, -448) (357, -328) (358, -291) (359, -254) (360, -219) (361, -378) (362, -320) (363, -275) (364, -372) (365, -516) (366, -521) (367, -133) (368, -474) (369, -306) (370, -233) (371, -218) (372, -415) (373, -353) (374, -310) (375, -407) (376, -178) (377, -411) (378, -520) (379, -458) (380, -272) (381, -299) (382, -198) (383, -182) (384, -424) (385, -419) (386, -303) (387, -351) (388, -227) (389, -483) (390, -494) (391, -335) (392, -341) (393, -292) (394, -499) (395, -192) (396, -287) (397, -498) (398, -213) (399, -240) (400, -283) (401, -335) (402, -347) (403, -177) (404, -167) (405, -136) (406, -473) (407, -234) (408, -435) (409, -472) (410, -171) (411, -187) (412, -251) (413, -257) (414, -257) (415, -154) (416, -156) (417, -449) (418, -393) (419, -271) (420, -412) (421, -366) (422, -494) (423, -231) (424, -138) (425, -472) (426, -312) (427, -314) (428, -450) (429, -414) (430, -443) (431, -212) (432, -228) (433, -269) (434, -277) (435, -284) (436, -293) (437, -230) (438, -407) (439, -208) (440, -181) (441, -467) (442, -283) (443, -320) (444, -203) (445, -429) (446, -363) (447, -247) (448, -357) (449, -344) (450, -407) (451, -248) (452, -490) (453, -381) (454, -368) (455, -517) (456, -332) (457, -160) (458, -310) (459, -261) (460, -462) (461, -232) (462, -361) (463, -170) (464, -390) (465, -118) (466, -343) (467, -162) (468, -236) (469, -229) (470, -259) (471, -305) (472, -175) (473, -431) (474, -514) (475, -267) (476, -339) (477, -356) (478, -403) (479, -175) (480, -480) (481, -289) (482, -312) (483, -450) (484, -149) (485, -160) (486, -446) (487, -369) (488, -208) (489, -236) (490, -519) (491, -150) (492, -357) (493, -359) (494, -208) (495, -334) (496, -365) (497, -440) (498, -277) (499, -490) (500, -148) (501, -425) (502, -274) (503, -212) (504, -335) (505, -268) (506, -367) (507, -153) (508, -513) (509, -249) (510, -217) (511, -472) (512, -3113) (0, -325) (1, -307) (2, -370) (3, -373) (4, -233) (5, -219) (6, -61) (7, -357) (8, -217) (9, -99) (10, -193) (11, -54) (12, -196) (13, -307) (14, -308) (15, -115) (16, -63) (17, -277) (18, -152) (19, -376) (20, -30) (21, -253) (22, -190) (23, -187) (24, -99) (25, -232) (26, -179) (27, -237) (28, -337) (29, -130) (30, -142) (31, -235) (32, -419) (33, -85) (34, -181) (35, -224) (36, -286) (37, -223) (38, -154) (39, -75) (40, -305) (41, -329) (42, -112) (43, -73) (44, -208) (45, -402) (46, -170) (47, -254) (48, -252) (49, -305) (50, -202) (51, -264) (52, -130) (53, -375) (54, -24) (55, -211) (56, -179) (57, -184) (58, -20) (59, -89) (60, -296) (61, -145) (62, -306) (63, -288) (64, -212) (65, -59) (66, -85) (67, -71) (68, -264) (69, -221) (70, -128) (71, -142) (72, -122) (73, -222) (74, -197) (75, -313) (76, -197) (77, -349) (78, -139) (79, -21) (80, -227) (81, -324) (82, -267) (83, -339) (84, -271) (85, -273) (86, -122) (87, -23) (88, -30) (89, -125) (90, -94) (91, -308) (92, -252) (93, -382) (94, -169) (95, -37) (96, -423) (97, -236) (98, -90) (99, -260) (100, -29) (101, -200) (102, -383) (103, -134) (104, -405) (105, -153) (106, -19) (107, -174) (108, -75) (109, -141) (110, -177) (111, -284) (112, -37) (113, -427) (114, -195) (115, -291) (116, -272) (117, -300) (118, -296) (119, -284) (120, -407) (121, -371) (122, -165) (123, -231) (124, -326) (125, -315) (126, -250) (127, -321) (128, -124) (129, -322) (130, -153) (131, -135) (132, -95) (133, -109) (134, -251) (135, -73) (136, -244) (137, -252) (138, -229) (139, -301) (140, -375) (141, -389) (142, -157) (143, -395) (144, -388) (145, -334) (146, -258) (147, -233) (148, -206) (149, -126) (150, -90) (151, -185) (152, -70) (153, -237) (154, -399) (155, -378) (156, -125) (157, -222) (158, -272) (159, -230) (160, -117) (161, -407) (162, -347) (163, -194) (164, -89) (165, -170) (166, -249) (167, -315) (168, -405) (169, -51) (170, -188) (171, -353) (172, -422) (173, -328) (174, -320) (175, -383) (176, -234) (177, -151) (178, -188) (179, -423) (180, -259) (181, -260) (182, -181) (183, -311) (184, -69) (185, -152) (186, -262) (187, -176) (188, -356) (189, -106) (190, -388) (191, -45) (192, -85) (193, -308) (194, -222) (195, -156) (196, -51) (197, -43) (198, -43) (199, -28) (200, -76) (201, -214) (202, -363) (203, -71) (204, -114) (205, -256) (206, -26) (207, -330) (208, -389) (209, -196) (210, -326) (211, -220) (212, -29) (213, -79) (214, -104) (215, -80) (216, -213) (217, -348) (218, -238) (219, -142) (220, -26) (221, -198) (222, -169) (223, -94) (224, -78) (225, -373) (226, -232) (227, -111) (228, -398) (229, -258) (230, -122) (231, -47) (232, -44) (233, -58) (234, -100) (235, -140) (236, -296) (237, -108) (238, -43) (239, -257) (240, -286) (241, -351) (242, -50) (243, -297) (244, -412) (245, -136) (246, -359) (247, -197) (248, -56) (249, -169) (250, -321) (251, -64) (252, -350) (253, -63) (254, -140) (255, -410) (256, -417) (257, -354) (258, -94) (259, -388) (260, -185) (261, -198) (262, -417) (263, -211) (264, -238) (265, -90) (266, -334) (267, -106) (268, -180) (269, -359) (270, -345) (271, -39) (272, -283) (273, -377) (274, -318) (275, -267) (276, -85) (277, -250) (278, -37) (279, -123) (280, -402) (281, -341) (282, -169) (283, -324) (284, -385) (285, -292) (286, -307) (287, -375) (288, -218) (289, -383) (290, -336) (291, -385) (292, -154) (293, -326) (294, -169) (295, -374) (296, -397) (297, -75) (298, -53) (299, -150) (300, -416) (301, -380) (302, -171) (303, -271) (304, -329) (305, -62) (306, -111) (307, -396) (308, -294) (309, -131) (310, -92) (311, -268) (312, -44) (313, -243) (314, -164) (315, -412) (316, -107) (317, -44) (318, -359) (319, -308) (320, -409) (321, -268) (322, -266) (323, -135) (324, -166) (325, -417) (326, -82) (327, -136) (328, -64) (329, -117) (330, -268) (331, -53) (332, -69) (333, -421) (334, -306) (335, -380) (336, -55) (337, -400) (338, -349) (339, -331) (340, -103) (341, -423) (342, -171) (343, -129) (344, -239) (345, -318) (346, -113) (347, -328) (348, -343) (349, -45) (350, -209) (351, -325) (352, -295) (353, -47) (354, -33) (355, -34) (356, -36) (357, -97) (358, -152) (359, -82) (360, -196) (361, -402) (362, -117) (363, -247) (364, -395) (365, -405) (366, -200) (367, -22) (368, -377) (369, -122) (370, -335) (371, -53) (372, -118) (373, -78) (374, -164) (375, -339) (376, -378) (377, -259) (378, -239) (379, -294) (380, -286) (381, -21) (382, -192) (383, -154) (384, -50) (385, -207) (386, -170) (387, -68) (388, -286) (389, -304) (390, -133) (391, -54) (392, -278) (393, -232) (394, -283) (395, -245) (396, -209) (397, -56) (398, -250) (399, -159) (400, -160) (401, -157) (402, -194) (403, -259) (404, -218) (405, -340) (406, -171) (407, -168) (408, -171) (409, -392) (410, -35) (411, -30) (412, -395) (413, -209) (414, -166) (415, -427) (416, -399) (417, -317) (418, -68) (419, -257) (420, -194) (421, -183) (422, -294) (423, -44) (424, -396) (425, -150) (426, -272) (427, -178) (428, -188) (429, -94) (430, -320) (431, -329) (432, -233) (433, -87) (434, -161) (435, -23) (436, -409) (437, -314) (438, -174) (439, -152) (440, -279) (441, -191) (442, -164) (443, -246) (444, -383) (445, -312) (446, -246) (447, -354) (448, -202) (449, -296) (450, -184) (451, -378) (452, -51) (453, -50) (454, -404) (455, -20) (456, -181) (457, -248) (458, -181) (459, -351) (460, -324) (461, -73) (462, -253) (463, -130) (464, -142) (465, -397) (466, -135) (467, -123) (468, -284) (469, -291) (470, -258) (471, -135) (472, -54) (473, -405) (474, -364) (475, -419) (476, -289) (477, -182) (478, -345) (479, -64) (480, -51) (481, -101) (482, -425) (483, -85) (484, -133) (485, -402) (486, -87) (487, -297) (488, -223) (489, -251) (490, -221) (491, -119) (492, -306) (493, -46) (494, -231) (495, -21) (496, -425) (497, -348) (498, -126) (499, -282) (500, -211) (501, -367) (502, -399) (503, -248) (504, -344) (505, -335) (506, -239) (507, -206) (508, -90) (509, -157) (510, -252) (511, -123) (512, -4601) (0, -343) (1, -284) (2, -450) (3, -317) (4, -353) (5, -319) (6, -112) (7, -177) (8, -113) (9, -213) (10, -465) (11, -141) (12, -427) (13, -468) (14, -139) (15, -348) (16, -167) (17, -403) (18, -132) (19, -516) (20, -374) (21, -362) (22, -432) (23, -282) (24, -173) (25, -210) (26, -354) (27, -313) (28, -444) (29, -460) (30, -126) (31, -266) (32, -223) (33, -465) (34, -471) (35, -465) (36, -263) (37, -472) (38, -121) (39, -265) (40, -165) (41, -474) (42, -295) (43, -480) (44, -422) (45, -323) (46, -307) (47, -478) (48, -205) (49, -327) (50, -473) (51, -468) (52, -168) (53, -384) (54, -229) (55, -230) (56, -483) (57, -472) (58, -432) (59, -406) (60, -411) (61, -447) (62, -152) (63, -113) (64, -391) (65, -512) (66, -467) (67, -134) (68, -463) (69, -476) (70, -287) (71, -516) (72, -430) (73, -470) (74, -475) (75, -331) (76, -272) (77, -262) (78, -288) (79, -366) (80, -478) (81, -239) (82, -313) (83, -125) (84, -512) (85, -431) (86, -244) (87, -474) (88, -382) (89, -156) (90, -360) (91, -272) (92, -491) (93, -400) (94, -274) (95, -361) (96, -391) (97, -220) (98, -384) (99, -333) (100, -175) (101, -150) (102, -328) (103, -493) (104, -509) (105, -283) (106, -303) (107, -260) (108, -433) (109, -479) (110, -515) (111, -390) (112, -198) (113, -307) (114, -404) (115, -189) (116, -217) (117, -128) (118, -143) (119, -487) (120, -172) (121, -391) (122, -238) (123, -143) (124, -270) (125, -401) (126, -393) (127, -141) (128, -509) (129, -256) (130, -363) (131, -163) (132, -294) (133, -170) (134, -135) (135, -282) (136, -342) (137, -327) (138, -431) (139, -254) (140, -286) (141, -425) (142, -124) (143, -372) (144, -211) (145, -417) (146, -450) (147, -316) (148, -434) (149, -481) (150, -282) (151, -494) (152, -351) (153, -409) (154, -116) (155, -511) (156, -289) (157, -397) (158, -130) (159, -278) (160, -132) (161, -382) (162, -329) (163, -315) (164, -441) (165, -354) (166, -486) (167, -262) (168, -160) (169, -396) (170, -405) (171, -334) (172, -300) (173, -418) (174, -185) (175, -399) (176, -314) (177, -114) (178, -194) (179, -226) (180, -484) (181, -365) (182, -200) (183, -315) (184, -254) (185, -205) (186, -305) (187, -432) (188, -491) (189, -324) (190, -189) (191, -511) (192, -185) (193, -407) (194, -305) (195, -514) (196, -239) (197, -270) (198, -255) (199, -288) (200, -145) (201, -139) (202, -511) (203, -334) (204, -445) (205, -175) (206, -212) (207, -238) (208, -179) (209, -295) (210, -353) (211, -142) (212, -139) (213, -442) (214, -346) (215, -282) (216, -125) (217, -130) (218, -193) (219, -505) (220, -342) (221, -270) (222, -495) (223, -416) (224, -156) (225, -280) (226, -409) (227, -284) (228, -439) (229, -143) (230, -461) (231, -473) (232, -171) (233, -451) (234, -286) (235, -505) (236, -515) (237, -387) (238, -222) (239, -173) (240, -161) (241, -464) (242, -203) (243, -189) (244, -385) (245, -438) (246, -360) (247, -399) (248, -456) (249, -441) (250, -383) (251, -277) (252, -190) (253, -357) (254, -172) (255, -235) (256, -116) (257, -470) (258, -408) (259, -444) (260, -502) (261, -347) (262, -396) (263, -151) (264, -277) (265, -161) (266, -135) (267, -272) (268, -437) (269, -246) (270, -333) (271, -487) (272, -189) (273, -425) (274, -155) (275, -462) (276, -342) (277, -403) (278, -340) (279, -278) (280, -324) (281, -202) (282, -444) (283, -403) (284, -449) (285, -505) (286, -117) (287, -454) (288, -454) (289, -413) (290, -377) (291, -434) (292, -240) (293, -253) (294, -474) (295, -406) (296, -303) (297, -498) (298, -157) (299, -219) (300, -223) (301, -379) (302, -185) (303, -301) (304, -283) (305, -228) (306, -243) (307, -514) (308, -521) (309, -472) (310, -271) (311, -323) (312, -153) (313, -194) (314, -205) (315, -491) (316, -178) (317, -211) (318, -423) (319, -520) (320, -513) (321, -280) (322, -433) (323, -232) (324, -421) (325, -387) (326, -117) (327, -203) (328, -364) (329, -163) (330, -311) (331, -477) (332, -430) (333, -384) (334, -257) (335, -192) (336, -501) (337, -388) (338, -185) (339, -501) (340, -339) (341, -345) (342, -303) (343, -381) (344, -427) (345, -398) (346, -351) (347, -493) (348, -497) (349, -253) (350, -492) (351, -490) (352, -422) (353, -405) (354, -201) (355, -322) (356, -271) (357, -207) (358, -413) (359, -115) (360, -258) (361, -203) (362, -480) (363, -167) (364, -476) (365, -216) (366, -248) (367, -456) (368, -492) (369, -322) (370, -436) (371, -310) (372, -146) (373, -219) (374, -170) (375, -461) (376, -505) (377, -410) (378, -434) (379, -482) (380, -142) (381, -405) (382, -450) (383, -452) (384, -289) (385, -130) (386, -253) (387, -449) (388, -225) (389, -146) (390, -452) (391, -372) (392, -238) (393, -411) (394, -428) (395, -193) (396, -516) (397, -155) (398, -128) (399, -487) (400, -366) (401, -453) (402, -276) (403, -400) (404, -151) (405, -335) (406, -341) (407, -135) (408, -224) (409, -254) (410, -506) (411, -255) (412, -138) (413, -435) (414, -187) (415, -316) (416, -454) (417, -329) (418, -245) (419, -158) (420, -363) (421, -176) (422, -419) (423, -490) (424, -477) (425, -326) (426, -162) (427, -471) (428, -369) (429, -179) (430, -438) (431, -214) (432, -111) (433, -193) (434, -503) (435, -151) (436, -417) (437, -323) (438, -175) (439, -121) (440, -465) (441, -160) (442, -264) (443, -492) (444, -484) (445, -340) (446, -288) (447, -416) (448, -147) (449, -421) (450, -463) (451, -399) (452, -487) (453, -361) (454, -368) (455, -442) (456, -166) (457, -419) (458, -393) (459, -424) (460, -486) (461, -310) (462, -117) (463, -487) (464, -392) (465, -509) (466, -117) (467, -288) (468, -311) (469, -181) (470, -298) (471, -255) (472, -230) (473, -451) (474, -227) (475, -192) (476, -270) (477, -404) (478, -497) (479, -306) (480, -304) (481, -440) (482, -184) (483, -270) (484, -280) (485, -441) (486, -191) (487, -334) (488, -339) (489, -473) (490, -237) (491, -305) (492, -262) (493, -243) (494, -270) (495, -132) (496, -232) (497, -276) (498, -309) (499, -431) (500, -346) (501, -495) (502, -166) (503, -464) (504, -425) (505, -282) (506, -136) (507, -174) (508, -164) (509, -112) (510, -369) (511, -357) (512, -3127) (0, -348) (1, -422) (2, -106) (3, -268) (4, -93) (5, -329) (6, -87) (7, -45) (8, -45) (9, -280) (10, -195) (11, -177) (12, -30) (13, -217) (14, -298) (15, -194) (16, -414) (17, -208) (18, -19) (19, -389) (20, -263) (21, -372) (22, -294) (23, -24) (24, -396) (25, -356) (26, -77) (27, -397) (28, -204) (29, -323) (30, -317) (31, -125) (32, -318) (33, -405) (34, -376) (35, -392) (36, -306) (37, -35) (38, -420) (39, -333) (40, -297) (41, -188) (42, -83) (43, -309) (44, -386) (45, -363) (46, -76) (47, -373) (48, -144) (49, -77) (50, -335) (51, -389) (52, -22) (53, -201) (54, -395) (55, -400) (56, -130) (57, -44) (58, -370) (59, -317) (60, -349) (61, -260) (62, -424) (63, -239) (64, -237) (65, -372) (66, -204) (67, -116) (68, -389) (69, -196) (70, -22) (71, -259) (72, -366) (73, -87) (74, -140) (75, -324) (76, -23) (77, -198) (78, -270) (79, -149) (80, -257) (81, -178) (82, -110) (83, -261) (84, -361) (85, -77) (86, -233) (87, -64) (88, -104) (89, -176) (90, -363) (91, -25) (92, -418) (93, -359) (94, -246) (95, -228) (96, -304) (97, -22) (98, -326) (99, -265) (100, -201) (101, -330) (102, -96) (103, -139) (104, -399) (105, -219) (106, -36) (107, -404) (108, -399) (109, -288) (110, -125) (111, -228) (112, -39) (113, -218) (114, -61) (115, -382) (116, -277) (117, -277) (118, -18) (119, -363) (120, -25) (121, -363) (122, -370) (123, -425) (124, -295) (125, -188) (126, -225) (127, -171) (128, -193) (129, -123) (130, -418) (131, -375) (132, -26) (133, -87) (134, -87) (135, -407) (136, -288) (137, -105) (138, -384) (139, -259) (140, -375) (141, -82) (142, -60) (143, -396) (144, -281) (145, -103) (146, -350) (147, -131) (148, -362) (149, -351) (150, -66) (151, -369) (152, -286) (153, -418) (154, -367) (155, -153) (156, -179) (157, -164) (158, -306) (159, -354) (160, -270) (161, -296) (162, -302) (163, -278) (164, -366) (165, -370) (166, -257) (167, -226) (168, -48) (169, -214) (170, -57) (171, -405) (172, -277) (173, -99) (174, -373) (175, -131) (176, -184) (177, -296) (178, -244) (179, -119) (180, -219) (181, -293) (182, -60) (183, -78) (184, -284) (185, -409) (186, -213) (187, -35) (188, -146) (189, -91) (190, -371) (191, -398) (192, -370) (193, -245) (194, -248) (195, -308) (196, -188) (197, -78) (198, -106) (199, -218) (200, -274) (201, -146) (202, -195) (203, -124) (204, -227) (205, -141) (206, -237) (207, -394) (208, -419) (209, -54) (210, -85) (211, -210) (212, -329) (213, -127) (214, -270) (215, -185) (216, -109) (217, -55) (218, -203) (219, -237) (220, -129) (221, -146) (222, -207) (223, -71) (224, -374) (225, -28) (226, -361) (227, -134) (228, -88) (229, -40) (230, -334) (231, -344) (232, -169) (233, -102) (234, -41) (235, -378) (236, -225) (237, -260) (238, -345) (239, -217) (240, -296) (241, -412) (242, -409) (243, -198) (244, -112) (245, -252) (246, -366) (247, -203) (248, -289) (249, -141) (250, -422) (251, -400) (252, -270) (253, -202) (254, -44) (255, -216) (256, -212) (257, -387) (258, -332) (259, -282) (260, -410) (261, -239) (262, -199) (263, -151) (264, -324) (265, -222) (266, -101) (267, -122) (268, -54) (269, -19) (270, -320) (271, -333) (272, -413) (273, -302) (274, -104) (275, -97) (276, -126) (277, -42) (278, -282) (279, -397) (280, -166) (281, -277) (282, -370) (283, -418) (284, -51) (285, -396) (286, -206) (287, -245) (288, -355) (289, -111) (290, -100) (291, -338) (292, -332) (293, -281) (294, -61) (295, -229) (296, -75) (297, -145) (298, -332) (299, -112) (300, -145) (301, -225) (302, -427) (303, -131) (304, -100) (305, -103) (306, -210) (307, -208) (308, -127) (309, -65) (310, -178) (311, -275) (312, -324) (313, -120) (314, -265) (315, -357) (316, -88) (317, -44) (318, -175) (319, -426) (320, -137) (321, -258) (322, -336) (323, -42) (324, -111) (325, -379) (326, -253) (327, -169) (328, -96) (329, -158) (330, -263) (331, -224) (332, -365) (333, -262) (334, -336) (335, -38) (336, -347) (337, -119) (338, -228) (339, -47) (340, -166) (341, -388) (342, -304) (343, -62) (344, -81) (345, -142) (346, -402) (347, -152) (348, -168) (349, -149) (350, -150) (351, -288) (352, -389) (353, -59) (354, -312) (355, -73) (356, -420) (357, -138) (358, -224) (359, -89) (360, -278) (361, -60) (362, -295) (363, -216) (364, -304) (365, -204) (366, -236) (367, -223) (368, -305) (369, -37) (370, -252) (371, -43) (372, -407) (373, -128) (374, -88) (375, -61) (376, -253) (377, -62) (378, -194) (379, -403) (380, -193) (381, -327) (382, -263) (383, -155) (384, -368) (385, -148) (386, -211) (387, -360) (388, -268) (389, -417) (390, -22) (391, -119) (392, -50) (393, -299) (394, -318) (395, -335) (396, -76) (397, -126) (398, -131) (399, -363) (400, -146) (401, -365) (402, -389) (403, -125) (404, -66) (405, -49) (406, -168) (407, -300) (408, -93) (409, -345) (410, -276) (411, -269) (412, -244) (413, -112) (414, -406) (415, -184) (416, -242) (417, -189) (418, -117) (419, -83) (420, -179) (421, -122) (422, -185) (423, -211) (424, -403) (425, -75) (426, -119) (427, -52) (428, -184) (429, -232) (430, -397) (431, -311) (432, -169) (433, -358) (434, -419) (435, -217) (436, -390) (437, -159) (438, -90) (439, -55) (440, -77) (441, -348) (442, -306) (443, -303) (444, -33) (445, -285) (446, -60) (447, -258) (448, -46) (449, -159) (450, -323) (451, -208) (452, -263) (453, -81) (454, -400) (455, -239) (456, -138) (457, -92) (458, -273) (459, -303) (460, -305) (461, -242) (462, -187) (463, -47) (464, -173) (465, -179) (466, -246) (467, -136) (468, -320) (469, -319) (470, -173) (471, -379) (472, -239) (473, -52) (474, -254) (475, -255) (476, -319) (477, -296) (478, -85) (479, -347) (480, -28) (481, -390) (482, -128) (483, -273) (484, -43) (485, -101) (486, -85) (487, -163) (488, -174) (489, -340) (490, -39) (491, -52) (492, -155) (493, -208) (494, -82) (495, -310) (496, -369) (497, -310) (498, -18) (499, -262) (500, -201) (501, -174) (502, -213) (503, -423) (504, -208) (505, -40) (506, -250) (507, -99) (508, -319) (509, -317) (510, -19) (511, -329) (512, -4640) (0, -129) (1, -175) (2, -304) (3, -212) (4, -242) (5, -40) (6, -368) (7, -154) (8, -61) (9, -403) (10, -291) (11, -251) (12, -57) (13, -174) (14, -193) (15, -350) (16, -174) (17, -28) (18, -124) (19, -330) (20, -223) (21, -119) (22, -110) (23, -246) (24, -351) (25, -192) (26, -137) (27, -240) (28, -193) (29, -38) (30, -92) (31, -304) (32, -196) (33, -378) (34, -88) (35, -420) (36, -400) (37, -29) (38, -147) (39, -34) (40, -415) (41, -420) (42, -267) (43, -45) (44, -166) (45, -33) (46, -376) (47, -323) (48, -43) (49, -73) (50, -225) (51, -248) (52, -174) (53, -318) (54, -66) (55, -97) (56, -82) (57, -185) (58, -320) (59, -257) (60, -206) (61, -394) (62, -134) (63, -384) (64, -345) (65, -204) (66, -376) (67, -318) (68, -216) (69, -95) (70, -334) (71, -203) (72, -88) (73, -174) (74, -230) (75, -236) (76, -189) (77, -179) (78, -132) (79, -214) (80, -234) (81, -339) (82, -35) (83, -390) (84, -229) (85, -83) (86, -59) (87, -293) (88, -251) (89, -361) (90, -123) (91, -29) (92, -328) (93, -239) (94, -395) (95, -245) (96, -425) (97, -344) (98, -135) (99, -214) (100, -421) (101, -42) (102, -399) (103, -82) (104, -198) (105, -201) (106, -301) (107, -369) (108, -363) (109, -414) (110, -156) (111, -169) (112, -326) (113, -173) (114, -131) (115, -128) (116, -239) (117, -173) (118, -403) (119, -62) (120, -107) (121, -99) (122, -74) (123, -416) (124, -320) (125, -42) (126, -234) (127, -317) (128, -367) (129, -352) (130, -104) (131, -361) (132, -376) (133, -75) (134, -425) (135, -146) (136, -259) (137, -299) (138, -88) (139, -194) (140, -286) (141, -226) (142, -345) (143, -184) (144, -382) (145, -49) (146, -294) (147, -193) (148, -204) (149, -270) (150, -238) (151, -292) (152, -351) (153, -294) (154, -281) (155, -243) (156, -318) (157, -88) (158, -133) (159, -258) (160, -421) (161, -219) (162, -192) (163, -370) (164, -276) (165, -190) (166, -88) (167, -108) (168, -61) (169, -158) (170, -284) (171, -329) (172, -367) (173, -201) (174, -85) (175, -321) (176, -232) (177, -361) (178, -87) (179, -418) (180, -204) (181, -307) (182, -283) (183, -127) (184, -174) (185, -137) (186, -352) (187, -64) (188, -207) (189, -57) (190, -304) (191, -201) (192, -258) (193, -68) (194, -143) (195, -107) (196, -240) (197, -213) (198, -197) (199, -283) (200, -354) (201, -53) (202, -184) (203, -294) (204, -237) (205, -251) (206, -187) (207, -42) (208, -185) (209, -257) (210, -32) (211, -371) (212, -137) (213, -298) (214, -70) (215, -293) (216, -417) (217, -404) (218, -339) (219, -196) (220, -34) (221, -216) (222, -379) (223, -274) (224, -266) (225, -95) (226, -363) (227, -78) (228, -291) (229, -133) (230, -343) (231, -217) (232, -168) (233, -99) (234, -83) (235, -387) (236, -332) (237, -253) (238, -410) (239, -90) (240, -82) (241, -425) (242, -33) (243, -201) (244, -295) (245, -85) (246, -67) (247, -285) (248, -62) (249, -388) (250, -54) (251, -78) (252, -176) (253, -415) (254, -334) (255, -424) (256, -83) (257, -270) (258, -75) (259, -356) (260, -385) (261, -400) (262, -145) (263, -126) (264, -71) (265, -211) (266, -85) (267, -386) (268, -36) (269, -68) (270, -48) (271, -101) (272, -66) (273, -63) (274, -284) (275, -343) (276, -131) (277, -333) (278, -200) (279, -175) (280, -294) (281, -236) (282, -235) (283, -43) (284, -224) (285, -142) (286, -40) (287, -289) (288, -394) (289, -97) (290, -217) (291, -352) (292, -69) (293, -345) (294, -50) (295, -123) (296, -128) (297, -118) (298, -81) (299, -146) (300, -168) (301, -112) (302, -229) (303, -215) (304, -157) (305, -86) (306, -131) (307, -270) (308, -401) (309, -313) (310, -427) (311, -268) (312, -122) (313, -234) (314, -293) (315, -329) (316, -358) (317, -316) (318, -191) (319, -325) (320, -395) (321, -390) (322, -250) (323, -37) (324, -307) (325, -282) (326, -142) (327, -418) (328, -382) (329, -205) (330, -136) (331, -122) (332, -299) (333, -348) (334, -319) (335, -29) (336, -416) (337, -23) (338, -281) (339, -390) (340, -318) (341, -281) (342, -230) (343, -423) (344, -88) (345, -96) (346, -324) (347, -18) (348, -394) (349, -88) (350, -325) (351, -361) (352, -50) (353, -147) (354, -380) (355, -340) (356, -412) (357, -94) (358, -330) (359, -366) (360, -282) (361, -39) (362, -61) (363, -153) (364, -369) (365, -362) (366, -165) (367, -357) (368, -367) (369, -18) (370, -319) (371, -258) (372, -282) (373, -122) (374, -254) (375, -351) (376, -200) (377, -151) (378, -352) (379, -167) (380, -221) (381, -250) (382, -101) (383, -253) (384, -380) (385, -54) (386, -166) (387, -364) (388, -130) (389, -69) (390, -303) (391, -394) (392, -90) (393, -345) (394, -120) (395, -32) (396, -280) (397, -267) (398, -371) (399, -220) (400, -267) (401, -263) (402, -51) (403, -122) (404, -367) (405, -287) (406, -46) (407, -140) (408, -420) (409, -380) (410, -289) (411, -213) (412, -202) (413, -372) (414, -39) (415, -154) (416, -408) (417, -187) (418, -91) (419, -111) (420, -238) (421, -375) (422, -78) (423, -310) (424, -293) (425, -180) (426, -323) (427, -146) (428, -19) (429, -267) (430, -348) (431, -269) (432, -102) (433, -381) (434, -373) (435, -41) (436, -240) (437, -400) (438, -163) (439, -232) (440, -353) (441, -25) (442, -18) (443, -127) (444, -379) (445, -39) (446, -264) (447, -360) (448, -208) (449, -337) (450, -43) (451, -18) (452, -285) (453, -103) (454, -310) (455, -151) (456, -265) (457, -206) (458, -279) (459, -266) (460, -45) (461, -199) (462, -108) (463, -129) (464, -153) (465, -53) (466, -153) (467, -375) (468, -26) (469, -298) (470, -180) (471, -361) (472, -305) (473, -180) (474, -61) (475, -257) (476, -201) (477, -307) (478, -189) (479, -391) (480, -216) (481, -214) (482, -392) (483, -73) (484, -299) (485, -274) (486, -206) (487, -137) (488, -53) (489, -58) (490, -385) (491, -80) (492, -240) (493, -66) (494, -192) (495, -375) (496, -101) (497, -327) (498, -322) (499, -109) (500, -198) (501, -75) (502, -42) (503, -76) (504, -237) (505, -85) (506, -315) (507, -421) (508, -374) (509, -77) (510, -385) (511, -162) (512, -4634) (0, -442) (1, -311) (2, -238) (3, -289) (4, -500) (5, -357) (6, -324) (7, -130) (8, -315) (9, -387) (10, -352) (11, -363) (12, -152) (13, -299) (14, -446) (15, -461) (16, -194) (17, -127) (18, -232) (19, -251) (20, -151) (21, -290) (22, -470) (23, -218) (24, -177) (25, -463) (26, -165) (27, -236) (28, -420) (29, -309) (30, -491) (31, -342) (32, -510) (33, -208) (34, -520) (35, -489) (36, -454) (37, -323) (38, -508) (39, -248) (40, -189) (41, -339) (42, -500) (43, -230) (44, -117) (45, -425) (46, -170) (47, -200) (48, -440) (49, -290) (50, -340) (51, -480) (52, -469) (53, -289) (54, -178) (55, -125) (56, -231) (57, -232) (58, -249) (59, -131) (60, -430) (61, -220) (62, -361) (63, -418) (64, -317) (65, -360) (66, -386) (67, -250) (68, -163) (69, -373) (70, -387) (71, -241) (72, -191) (73, -366) (74, -359) (75, -198) (76, -270) (77, -417) (78, -286) (79, -189) (80, -187) (81, -515) (82, -149) (83, -134) (84, -283) (85, -215) (86, -148) (87, -403) (88, -336) (89, -286) (90, -423) (91, -245) (92, -394) (93, -264) (94, -142) (95, -190) (96, -513) (97, -417) (98, -329) (99, -155) (100, -269) (101, -195) (102, -284) (103, -350) (104, -449) (105, -122) (106, -436) (107, -198) (108, -428) (109, -201) (110, -276) (111, -504) (112, -196) (113, -313) (114, -117) (115, -368) (116, -417) (117, -154) (118, -250) (119, -232) (120, -329) (121, -152) (122, -365) (123, -202) (124, -305) (125, -396) (126, -281) (127, -297) (128, -292) (129, -499) (130, -340) (131, -450) (132, -173) (133, -513) (134, -279) (135, -511) (136, -114) (137, -194) (138, -188) (139, -431) (140, -284) (141, -353) (142, -414) (143, -368) (144, -145) (145, -419) (146, -215) (147, -451) (148, -462) (149, -354) (150, -162) (151, -270) (152, -395) (153, -416) (154, -361) (155, -179) (156, -291) (157, -122) (158, -365) (159, -472) (160, -509) (161, -184) (162, -401) (163, -161) (164, -176) (165, -159) (166, -151) (167, -178) (168, -242) (169, -228) (170, -498) (171, -415) (172, -470) (173, -391) (174, -262) (175, -504) (176, -289) (177, -366) (178, -433) (179, -230) (180, -199) (181, -484) (182, -389) (183, -483) (184, -379) (185, -229) (186, -141) (187, -148) (188, -240) (189, -395) (190, -509) (191, -228) (192, -467) (193, -389) (194, -278) (195, -122) (196, -437) (197, -318) (198, -189) (199, -158) (200, -435) (201, -166) (202, -461) (203, -384) (204, -446) (205, -202) (206, -367) (207, -214) (208, -457) (209, -279) (210, -333) (211, -135) (212, -242) (213, -201) (214, -507) (215, -510) (216, -319) (217, -127) (218, -137) (219, -448) (220, -410) (221, -125) (222, -155) (223, -356) (224, -403) (225, -321) (226, -367) (227, -318) (228, -119) (229, -445) (230, -365) (231, -442) (232, -500) (233, -305) (234, -306) (235, -425) (236, -395) (237, -151) (238, -118) (239, -331) (240, -319) (241, -339) (242, -355) (243, -450) (244, -429) (245, -341) (246, -439) (247, -227) (248, -357) (249, -465) (250, -154) (251, -246) (252, -478) (253, -198) (254, -491) (255, -360) (256, -408) (257, -338) (258, -158) (259, -415) (260, -262) (261, -411) (262, -337) (263, -241) (264, -195) (265, -121) (266, -145) (267, -479) (268, -161) (269, -152) (270, -289) (271, -369) (272, -380) (273, -123) (274, -299) (275, -288) (276, -353) (277, -217) (278, -404) (279, -189) (280, -160) (281, -447) (282, -323) (283, -118) (284, -123) (285, -293) (286, -367) (287, -420) (288, -520) (289, -413) (290, -314) (291, -261) (292, -303) (293, -130) (294, -391) (295, -386) (296, -140) (297, -424) (298, -344) (299, -190) (300, -465) (301, -113) (302, -448) (303, -324) (304, -125) (305, -226) (306, -500) (307, -366) (308, -331) (309, -384) (310, -444) (311, -380) (312, -309) (313, -246) (314, -387) (315, -321) (316, -428) (317, -232) (318, -220) (319, -427) (320, -124) (321, -423) (322, -166) (323, -316) (324, -442) (325, -446) (326, -182) (327, -470) (328, -349) (329, -415) (330, -139) (331, -293) (332, -416) (333, -476) (334, -506) (335, -429) (336, -181) (337, -485) (338, -275) (339, -401) (340, -348) (341, -197) (342, -260) (343, -137) (344, -332) (345, -126) (346, -347) (347, -239) (348, -247) (349, -456) (350, -145) (351, -260) (352, -358) (353, -200) (354, -465) (355, -279) (356, -125) (357, -126) (358, -228) (359, -363) (360, -429) (361, -256) (362, -136) (363, -324) (364, -212) (365, -120) (366, -232) (367, -282) (368, -495) (369, -396) (370, -162) (371, -322) (372, -482) (373, -311) (374, -347) (375, -293) (376, -326) (377, -173) (378, -421) (379, -462) (380, -517) (381, -455) (382, -201) (383, -354) (384, -134) (385, -145) (386, -112) (387, -148) (388, -160) (389, -229) (390, -400) (391, -477) (392, -374) (393, -424) (394, -280) (395, -475) (396, -433) (397, -402) (398, -236) (399, -407) (400, -277) (401, -286) (402, -208) (403, -238) (404, -486) (405, -444) (406, -420) (407, -291) (408, -505) (409, -320) (410, -232) (411, -502) (412, -254) (413, -322) (414, -335) (415, -277) (416, -356) (417, -336) (418, -314) (419, -513) (420, -453) (421, -193) (422, -469) (423, -306) (424, -506) (425, -120) (426, -260) (427, -418) (428, -410) (429, -384) (430, -304) (431, -166) (432, -150) (433, -401) (434, -293) (435, -115) (436, -324) (437, -192) (438, -295) (439, -308) (440, -401) (441, -416) (442, -289) (443, -135) (444, -217) (445, -513) (446, -301) (447, -855) (448, -981) (449, -1157) (450, -739) (451, -653) (452, -829) (453, -579) (454, -455) (455, -160) (456, -194) (457, -194) (458, -467) (459, -1147) (460, -860) (461, -251) (462, -139) (463, -505) (464, -131) (465, -321) (466, -509) (467, -344) (468, -401) (469, -283) (470, -131) (471, -282) (472, -178) (473, -309) (474, -305) (475, -284) (476, -301) (477, -494) (478, -225) (479, -518) (480, -477) (481, -460) (482, -257) (483, -131) (484, -124) (485, -191) (486, -180) (487, -207) (488, -273) (489, -127) (490, -180) (491, -220) (492, -266) (493, -208) (494, -598) (495, -939) (496, -811) (497, -586) (498, -519) (499, -298) (500, -365) (501, -129) (502, -468) (503, -432) (504, -328) (505, -252) (506, -195) (507, -518) (508, -226) (509, -309) (510, -514) (511, -182) (512, -2935) (0, -157) (1, -108) (2, -167) (3, -236) (4, -177) (5, -264) (6, -398) (7, -193) (8, -333) (9, -97) (10, -348) (11, -20) (12, -190) (13, -113) (14, -326) (15, -272) (16, -111) (17, -103) (18, -115) (19, -129) (20, -51) (21, -26) (22, -346) (23, -192) (24, -110) (25, -342) (26, -306) (27, -308) (28, -336) (29, -376) (30, -35) (31, -65) (32, -57) (33, -184) (34, -283) (35, -217) (36, -21) (37, -254) (38, -392) (39, -335) (40, -333) (41, -312) (42, -337) (43, -96) (44, -407) (45, -236) (46, -350) (47, -91) (48, -321) (49, -38) (50, -203) (51, -354) (52, -46) (53, -121) (54, -118) (55, -138) (56, -36) (57, -407) (58, -18) (59, -354) (60, -356) (61, -35) (62, -401) (63, -395) (64, -201) (65, -256) (66, -184) (67, -204) (68, -83) (69, -148) (70, -112) (71, -399) (72, -33) (73, -22) (74, -67) (75, -422) (76, -240) (77, -399) (78, -86) (79, -134) (80, -419) (81, -271) (82, -60) (83, -37) (84, -374) (85, -161) (86, -157) (87, -392) (88, -140) (89, -158) (90, -318) (91, -68) (92, -175) (93, -291) (94, -35) (95, -358) (96, -120) (97, -202) (98, -134) (99, -185) (100, -332) (101, -229) (102, -156) (103, -347) (104, -232) (105, -206) (106, -341) (107, -45) (108, -177) (109, -410) (110, -161) (111, -169) (112, -253) (113, -203) (114, -188) (115, -199) (116, -346) (117, -328) (118, -164) (119, -58) (120, -58) (121, -54) (122, -108) (123, -215) (124, -327) (125, -126) (126, -145) (127, -20) (128, -310) (129, -262) (130, -187) (131, -214) (132, -63) (133, -326) (134, -133) (135, -278) (136, -104) (137, -47) (138, -305) (139, -263) (140, -29) (141, -38) (142, -415) (143, -264) (144, -223) (145, -176) (146, -36) (147, -142) (148, -76) (149, -182) (150, -182) (151, -116) (152, -218) (153, -273) (154, -313) (155, -118) (156, -381) (157, -31) (158, -119) (159, -263) (160, -275) (161, -289) (162, -50) (163, -320) (164, -187) (165, -165) (166, -170) (167, -273) (168, -194) (169, -47) (170, -109) (171, -205) (172, -67) (173, -96) (174, -42) (175, -272) (176, -254) (177, -60) (178, -396) (179, -312) (180, -224) (181, -151) (182, -410) (183, -424) (184, -406) (185, -296) (186, -114) (187, -359) (188, -309) (189, -216) (190, -195) (191, -156) (192, -77) (193, -227) (194, -48) (195, -246) (196, -374) (197, -200) (198, -92) (199, -140) (200, -230) (201, -183) (202, -327) (203, -279) (204, -261) (205, -351) (206, -124) (207, -87) (208, -393) (209, -92) (210, -381) (211, -190) (212, -226) (213, -364) (214, -186) (215, -204) (216, -232) (217, -283) (218, -136) (219, -114) (220, -71) (221, -313) (222, -252) (223, -131) (224, -113) (225, -282) (226, -359) (227, -59) (228, -55) (229, -23) (230, -181) (231, -267) (232, -188) (233, -81) (234, -118) (235, -21) (236, -414) (237, -224) (238, -90) (239, -379) (240, -299) (241, -44) (242, -141) (243, -97) (244, -390) (245, -310) (246, -283) (247, -195) (248, -165) (249, -401) (250, -290) (251, -219) (252, -287) (253, -115) (254, -332) (255, -382) (256, -379) (257, -264) (258, -423) (259, -416) (260, -269) (261, -176) (262, -256) (263, -30) (264, -239) (265, -356) (266, -33) (267, -225) (268, -153) (269, -106) (270, -177) (271, -24) (272, -132) (273, -300) (274, -103) (275, -95) (276, -183) (277, -368) (278, -271) (279, -330) (280, -342) (281, -134) (282, -122) (283, -202) (284, -231) (285, -26) (286, -156) (287, -183) (288, -272) (289, -151) (290, -172) (291, -113) (292, -310) (293, -410) (294, -125) (295, -121) (296, -339) (297, -141) (298, -329) (299, -64) (300, -229) (301, -78) (302, -70) (303, -343) (304, -361) (305, -154) (306, -420) (307, -116) (308, -95) (309, -264) (310, -19) (311, -419) (312, -381) (313, -123) (314, -193) (315, -184) (316, -131) (317, -331) (318, -349) (319, -385) (320, -55) (321, -94) (322, -71) (323, -347) (324, -76) (325, -178) (326, -41) (327, -397) (328, -302) (329, -352) (330, -33) (331, -103) (332, -413) (333, -85) (334, -19) (335, -347) (336, -222) (337, -421) (338, -36) (339, -299) (340, -258) (341, -37) (342, -290) (343, -211) (344, -142) (345, -56) (346, -378) (347, -255) (348, -370) (349, -300) (350, -213) (351, -407) (352, -376) (353, -266) (354, -327) (355, -25) (356, -426) (357, -350) (358, -404) (359, -300) (360, -275) (361, -419) (362, -385) (363, -261) (364, -77) (365, -387) (366, -180) (367, -281) (368, -380) (369, -198) (370, -152) (371, -211) (372, -217) (373, -425) (374, -404) (375, -341) (376, -54) (377, -354) (378, -169) (379, -405) (380, -227) (381, -363) (382, -385) (383, -175) (384, -201) (385, -284) (386, -182) (387, -200) (388, -207) (389, -158) (390, -73) (391, -55) (392, -150) (393, -31) (394, -297) (395, -209) (396, -399) (397, -50) (398, -62) (399, -352) (400, -229) (401, -197) (402, -136) (403, -19) (404, -194) (405, -112) (406, -342) (407, -230) (408, -39) (409, -83) (410, -208) (411, -248) (412, -19) (413, -165) (414, -405) (415, -202) (416, -22) (417, -159) (418, -385) (419, -211) (420, -299) (421, -30) (422, -248) (423, -22) (424, -43) (425, -118) (426, -213) (427, -424) (428, -150) (429, -258) (430, -349) (431, -362) (432, -27) (433, -57) (434, -363) (435, -204) (436, -152) (437, -277) (438, -416) (439, -173) (440, -342) (441, -196) (442, -403) (443, -343) (444, -343) (445, -380) (446, -118) (447, -348) (448, -112) (449, -75) (450, -132) (451, -393) (452, -87) (453, -362) (454, -398) (455, -112) (456, -53) (457, -183) (458, -109) (459, -185) (460, -424) (461, -31) (462, -120) (463, -23) (464, -70) (465, -55) (466, -209) (467, -204) (468, -314) (469, -197) (470, -359) (471, -229) (472, -375) (473, -335) (474, -145) (475, -291) (476, -287) (477, -245) (478, -212) (479, -381) (480, -302) (481, -326) (482, -347) (483, -371) (484, -261) (485, -317) (486, -56) (487, -296) (488, -73) (489, -147) (490, -54) (491, -69) (492, -160) (493, -156) (494, -74) (495, -213) (496, -193) (497, -266) (498, -400) (499, -80) (500, -36) (501, -331) (502, -291) (503, -393) (504, -239) (505, -417) (506, -257) (507, -98) (508, -235) (509, -41) (510, -52) (511, -110) (512, -4710) (0, -474) (1, -147) (2, -276) (3, -364) (4, -185) (5, -144) (6, -419) (7, -315) (8, -180) (9, -470) (10, -457) (11, -318) (12, -117) (13, -243) (14, -493) (15, -365) (16, -215) (17, -145) (18, -382) (19, -119) (20, -418) (21, -348) (22, -340) (23, -408) (24, -178) (25, -420) (26, -215) (27, -201) (28, -454) (29, -307) (30, -123) (31, -408) (32, -343) (33, -288) (34, -250) (35, -417) (36, -320) (37, -148) (38, -211) (39, -389) (40, -507) (41, -147) (42, -186) (43, -512) (44, -279) (45, -158) (46, -356) (47, -382) (48, -191) (49, -217) (50, -390) (51, -498) (52, -454) (53, -209) (54, -384) (55, -520) (56, -518) (57, -488) (58, -200) (59, -451) (60, -274) (61, -212) (62, -338) (63, -506) (64, -389) (65, -477) (66, -402) (67, -188) (68, -514) (69, -501) (70, -466) (71, -499) (72, -128) (73, -131) (74, -491) (75, -295) (76, -178) (77, -325) (78, -156) (79, -258) (80, -431) (81, -435) (82, -235) (83, -364) (84, -123) (85, -508) (86, -364) (87, -119) (88, -476) (89, -453) (90, -459) (91, -229) (92, -144) (93, -276) (94, -214) (95, -422) (96, -232) (97, -505) (98, -499) (99, -225) (100, -485) (101, -444) (102, -204) (103, -502) (104, -464) (105, -173) (106, -276) (107, -121) (108, -387) (109, -321) (110, -268) (111, -298) (112, -235) (113, -392) (114, -141) (115, -246) (116, -380) (117, -394) (118, -254) (119, -335) (120, -326) (121, -192) (122, -453) (123, -358) (124, -357) (125, -146) (126, -259) (127, -478) (128, -130) (129, -237) (130, -182) (131, -504) (132, -160) (133, -274) (134, -485) (135, -512) (136, -336) (137, -240) (138, -113) (139, -203) (140, -449) (141, -270) (142, -389) (143, -163) (144, -141) (145, -419) (146, -298) (147, -410) (148, -292) (149, -441) (150, -224) (151, -506) (152, -112) (153, -156) (154, -344) (155, -358) (156, -190) (157, -492) (158, -315) (159, -209) (160, -208) (161, -386) (162, -192) (163, -256) (164, -140) (165, -156) (166, -248) (167, -365) (168, -284) (169, -249) (170, -456) (171, -212) (172, -408) (173, -324) (174, -264) (175, -437) (176, -223) (177, -451) (178, -326) (179, -404) (180, -370) (181, -438) (182, -389) (183, -371) (184, -483) (185, -212) (186, -209) (187, -152) (188, -183) (189, -412) (190, -250) (191, -280) (192, -278) (193, -331) (194, -425) (195, -306) (196, -376) (197, -151) (198, -150) (199, -139) (200, -289) (201, -494) (202, -241) (203, -176) (204, -298) (205, -394) (206, -502) (207, -410) (208, -323) (209, -308) (210, -292) (211, -173) (212, -225) (213, -161) (214, -433) (215, -187) (216, -262) (217, -121) (218, -228) (219, -333) (220, -422) (221, -367) (222, -502) (223, -179) (224, -178) (225, -405) (226, -373) (227, -442) (228, -446) (229, -412) (230, -471) (231, -214) (232, -385) (233, -190) (234, -279) (235, -162) (236, -473) (237, -261) (238, -460) (239, -275) (240, -457) (241, -232) (242, -337) (243, -161) (244, -281) (245, -249) (246, -237) (247, -432) (248, -258) (249, -354) (250, -244) (251, -159) (252, -200) (253, -225) (254, -226) (255, -267) (256, -519) (257, -488) (258, -188) (259, -444) (260, -379) (261, -138) (262, -137) (263, -243) (264, -217) (265, -305) (266, -294) (267, -169) (268, -454) (269, -234) (270, -332) (271, -391) (272, -354) (273, -148) (274, -441) (275, -115) (276, -286) (277, -157) (278, -435) (279, -433) (280, -400) (281, -158) (282, -481) (283, -490) (284, -272) (285, -186) (286, -235) (287, -270) (288, -154) (289, -312) (290, -193) (291, -422) (292, -339) (293, -219) (294, -144) (295, -444) (296, -413) (297, -327) (298, -502) (299, -346) (300, -449) (301, -313) (302, -216) (303, -283) (304, -351) (305, -136) (306, -286) (307, -116) (308, -183) (309, -200) (310, -437) (311, -472) (312, -248) (313, -397) (314, -440) (315, -408) (316, -472) (317, -155) (318, -158) (319, -514) (320, -356) (321, -240) (322, -415) (323, -174) (324, -348) (325, -448) (326, -507) (327, -240) (328, -254) (329, -488) (330, -475) (331, -182) (332, -280) (333, -170) (334, -353) (335, -520) (336, -195) (337, -119) (338, -114) (339, -267) (340, -208) (341, -440) (342, -217) (343, -344) (344, -316) (345, -137) (346, -232) (347, -267) (348, -180) (349, -278) (350, -260) (351, -425) (352, -407) (353, -154) (354, -487) (355, -234) (356, -491) (357, -473) (358, -362) (359, -224) (360, -440) (361, -316) (362, -295) (363, -200) (364, -375) (365, -127) (366, -199) (367, -459) (368, -135) (369, -202) (370, -204) (371, -231) (372, -121) (373, -310) (374, -464) (375, -326) (376, -336) (377, -175) (378, -481) (379, -405) (380, -342) (381, -221) (382, -309) (383, -228) (384, -264) (385, -275) (386, -350) (387, -234) (388, -228) (389, -191) (390, -347) (391, -147) (392, -395) (393, -121) (394, -236) (395, -249) (396, -137) (397, -323) (398, -187) (399, -160) (400, -414) (401, -280) (402, -280) (403, -423) (404, -479) (405, -223) (406, -228) (407, -294) (408, -287) (409, -189) (410, -177) (411, -518) (412, -298) (413, -375) (414, -225) (415, -451) (416, -129) (417, -464) (418, -273) (419, -354) (420, -134) (421, -400) (422, -389) (423, -418) (424, -409) (425, -405) (426, -146) (427, -435) (428, -207) (429, -222) (430, -483) (431, -510) (432, -390) (433, -243) (434, -412) (435, -348) (436, -354) (437, -120) (438, -121) (439, -120) (440, -197) (441, -187) (442, -117) (443, -384) (444, -451) (445, -231) (446, -314) (447, -862) (448, -827) (449, -1020) (450, -586) (451, -590) (452, -899) (453, -756) (454, -503) (455, -135) (456, -247) (457, -129) (458, -458) (459, -997) (460, -893) (461, -529) (462, -332) (463, -627) (464, -142) (465, -224) (466, -346) (467, -385) (468, -232) (469, -356) (470, -395) (471, -318) (472, -432) (473, -401) (474, -181) (475, -362) (476, -520) (477, -384) (478, -310) (479, -173) (480, -230) (481, -392) (482, -258) (483, -365) (484, -233) (485, -241) (486, -388) (487, -369) (488, -258) (489, -325) (490, -192) (491, -387) (492, -225) (493, -413) (494, -778) (495, -909) (496, -769) (497, -604) (498, -121) (499, -237) (500, -455) (501, -404) (502, -443) (503, -366) (504, -284) (505, -513) (506, -208) (507, -283) (508, -375) (509, -406) (510, -345) (511, -494) (512, -2964) (0, -398) (1, -244) (2, -305) (3, -118) (4, -112) (5, -154) (6, -265) (7, -326) (8, -235) (9, -131) (10, -30) (11, -127) (12, -404) (13, -174) (14, -131) (15, -94) (16, -184) (17, -257) (18, -28) (19, -67) (20, -179) (21, -283) (22, -240) (23, -170) (24, -379) (25, -412) (26, -25) (27, -264) (28, -236) (29, -408) (30, -20) (31, -206) (32, -224) (33, -308) (34, -306) (35, -318) (36, -34) (37, -144) (38, -216) (39, -251) (40, -257) (41, -228) (42, -360) (43, -234) (44, -385) (45, -63) (46, -309) (47, -141) (48, -302) (49, -319) (50, -191) (51, -54) (52, -175) (53, -413) (54, -206) (55, -127) (56, -397) (57, -213) (58, -373) (59, -205) (60, -193) (61, -375) (62, -393) (63, -400) (64, -255) (65, -272) (66, -291) (67, -272) (68, -398) (69, -80) (70, -95) (71, -228) (72, -290) (73, -27) (74, -34) (75, -248) (76, -73) (77, -326) (78, -371) (79, -357) (80, -218) (81, -135) (82, -393) (83, -375) (84, -120) (85, -171) (86, -74) (87, -89) (88, -366) (89, -20) (90, -276) (91, -132) (92, -377) (93, -242) (94, -105) (95, -205) (96, -87) (97, -377) (98, -49) (99, -58) (100, -30) (101, -126) (102, -267) (103, -302) (104, -135) (105, -283) (106, -122) (107, -190) (108, -181) (109, -66) (110, -120) (111, -381) (112, -183) (113, -85) (114, -328) (115, -285) (116, -238) (117, -385) (118, -356) (119, -177) (120, -386) (121, -205) (122, -291) (123, -336) (124, -19) (125, -378) (126, -114) (127, -88) (128, -328) (129, -145) (130, -128) (131, -340) (132, -254) (133, -377) (134, -214) (135, -371) (136, -233) (137, -319) (138, -134) (139, -397) (140, -367) (141, -236) (142, -351) (143, -123) (144, -302) (145, -252) (146, -390) (147, -113) (148, -209) (149, -319) (150, -272) (151, -168) (152, -97) (153, -136) (154, -76) (155, -98) (156, -87) (157, -172) (158, -169) (159, -397) (160, -299) (161, -279) (162, -310) (163, -125) (164, -229) (165, -97) (166, -69) (167, -35) (168, -398) (169, -185) (170, -414) (171, -338) (172, -403) (173, -338) (174, -33) (175, -278) (176, -162) (177, -406) (178, -373) (179, -353) (180, -298) (181, -218) (182, -93) (183, -377) (184, -337) (185, -151) (186, -47) (187, -406) (188, -306) (189, -198) (190, -376) (191, -177) (192, -50) (193, -258) (194, -285) (195, -261) (196, -337) (197, -336) (198, -278) (199, -308) (200, -94) (201, -265) (202, -218) (203, -69) (204, -175) (205, -234) (206, -329) (207, -319) (208, -212) (209, -275) (210, -245) (211, -83) (212, -65) (213, -320) (214, -32) (215, -384) (216, -44) (217, -61) (218, -362) (219, -332) (220, -242) (221, -311) (222, -82) (223, -274) (224, -142) (225, -349) (226, -108) (227, -52) (228, -258) (229, -369) (230, -342) (231, -334) (232, -206) (233, -133) (234, -385) (235, -364) (236, -349) (237, -287) (238, -256) (239, -134) (240, -134) (241, -73) (242, -199) (243, -182) (244, -376) (245, -213) (246, -138) (247, -402) (248, -256) (249, -73) (250, -307) (251, -70) (252, -366) (253, -371) (254, -327) (255, -81) (256, -293) (257, -417) (258, -115) (259, -124) (260, -358) (261, -29) (262, -31) (263, -137) (264, -144) (265, -398) (266, -73) (267, -66) (268, -258) (269, -311) (270, -182) (271, -374) (272, -367) (273, -363) (274, -129) (275, -315) (276, -148) (277, -249) (278, -290) (279, -386) (280, -304) (281, -170) (282, -29) (283, -243) (284, -114) (285, -338) (286, -306) (287, -390) (288, -328) (289, -403) (290, -86) (291, -258) (292, -415) (293, -99) (294, -377) (295, -131) (296, -70) (297, -22) (298, -179) (299, -310) (300, -316) (301, -344) (302, -256) (303, -255) (304, -279) (305, -367) (306, -143) (307, -409) (308, -189) (309, -416) (310, -368) (311, -66) (312, -158) (313, -380) (314, -292) (315, -255) (316, -291) (317, -170) (318, -217) (319, -191) (320, -146) (321, -285) (322, -21) (323, -133) (324, -366) (325, -380) (326, -247) (327, -418) (328, -385) (329, -409) (330, -300) (331, -273) (332, -325) (333, -129) (334, -101) (335, -177) (336, -69) (337, -226) (338, -159) (339, -240) (340, -215) (341, -99) (342, -288) (343, -355) (344, -52) (345, -152) (346, -183) (347, -325) (348, -305) (349, -382) (350, -88) (351, -23) (352, -239) (353, -91) (354, -139) (355, -178) (356, -44) (357, -368) (358, -168) (359, -410) (360, -349) (361, -40) (362, -256) (363, -247) (364, -151) (365, -339) (366, -406) (367, -202) (368, -138) (369, -137) (370, -424) (371, -334) (372, -218) (373, -285) (374, -262) (375, -252) (376, -419) (377, -427) (378, -150) (379, -296) (380, -381) (381, -220) (382, -301) (383, -193) (384, -293) (385, -423) (386, -353) (387, -319) (388, -363) (389, -93) (390, -302) (391, -285) (392, -116) (393, -130) (394, -105) (395, -249) (396, -42) (397, -83) (398, -24) (399, -162) (400, -202) (401, -21) (402, -69) (403, -402) (404, -288) (405, -313) (406, -227) (407, -279) (408, -313) (409, -359) (410, -147) (411, -266) (412, -151) (413, -21) (414, -32) (415, -426) (416, -426) (417, -366) (418, -318) (419, -362) (420, -32) (421, -192) (422, -219) (423, -130) (424, -305) (425, -306) (426, -361) (427, -329) (428, -371) (429, -367) (430, -64) (431, -145) (432, -370) (433, -115) (434, -120) (435, -231) (436, -410) (437, -329) (438, -82) (439, -296) (440, -261) (441, -211) (442, -135) (443, -394) (444, -215) (445, -148) (446, -393) (447, -213) (448, -350) (449, -546) (450, -148) (451, -102) (452, -311) (453, -349) (454, -214) (455, -336) (456, -228) (457, -147) (458, -238) (459, -172) (460, -88) (461, -284) (462, -299) (463, -30) (464, -380) (465, -401) (466, -243) (467, -363) (468, -303) (469, -307) (470, -231) (471, -136) (472, -91) (473, -348) (474, -102) (475, -288) (476, -69) (477, -68) (478, -74) (479, -138) (480, -333) (481, -204) (482, -222) (483, -364) (484, -126) (485, -418) (486, -272) (487, -336) (488, -138) (489, -82) (490, -80) (491, -207) (492, -348) (493, -361) (494, -220) (495, -564) (496, -335) (497, -36) (498, -237) (499, -210) (500, -325) (501, -41) (502, -328) (503, -399) (504, -371) (505, -413) (506, -259) (507, -422) (508, -53) (509, -316) (510, -133) (511, -369) (512, -4453) (0, -430) (1, -399) (2, -293) (3, -421) (4, -243) (5, -202) (6, -131) (7, -308) (8, -264) (9, -321) (10, -229) (11, -198) (12, -113) (13, -512) (14, -515) (15, -131) (16, -321) (17, -298) (18, -439) (19, -344) (20, -199) (21, -410) (22, -288) (23, -184) (24, -242) (25, -282) (26, -219) (27, -130) (28, -397) (29, -160) (30, -204) (31, -307) (32, -448) (33, -386) (34, -207) (35, -170) (36, -477) (37, -227) (38, -367) (39, -220) (40, -436) (41, -484) (42, -307) (43, -438) (44, -476) (45, -301) (46, -459) (47, -276) (48, -488) (49, -376) (50, -509) (51, -165) (52, -265) (53, -276) (54, -238) (55, -396) (56, -447) (57, -346) (58, -414) (59, -324) (60, -395) (61, -507) (62, -520) (63, -322) (64, -373) (65, -206) (66, -381) (67, -329) (68, -321) (69, -227) (70, -438) (71, -237) (72, -190) (73, -224) (74, -154) (75, -145) (76, -414) (77, -502) (78, -310) (79, -381) (80, -357) (81, -298) (82, -435) (83, -511) (84, -463) (85, -152) (86, -386) (87, -390) (88, -386) (89, -280) (90, -193) (91, -260) (92, -266) (93, -192) (94, -471) (95, -118) (96, -286) (97, -330) (98, -336) (99, -496) (100, -446) (101, -253) (102, -212) (103, -115) (104, -366) (105, -255) (106, -149) (107, -260) (108, -236) (109, -347) (110, -120) (111, -482) (112, -125) (113, -444) (114, -472) (115, -477) (116, -484) (117, -338) (118, -346) (119, -350) (120, -506) (121, -427) (122, -499) (123, -252) (124, -507) (125, -449) (126, -259) (127, -273) (128, -258) (129, -484) (130, -248) (131, -183) (132, -216) (133, -349) (134, -187) (135, -471) (136, -493) (137, -225) (138, -210) (139, -208) (140, -461) (141, -219) (142, -169) (143, -474) (144, -141) (145, -120) (146, -430) (147, -514) (148, -347) (149, -255) (150, -343) (151, -332) (152, -161) (153, -321) (154, -473) (155, -147) (156, -249) (157, -211) (158, -308) (159, -396) (160, -174) (161, -445) (162, -468) (163, -279) (164, -273) (165, -134) (166, -229) (167, -245) (168, -247) (169, -328) (170, -342) (171, -187) (172, -436) (173, -399) (174, -140) (175, -466) (176, -408) (177, -459) (178, -459) (179, -234) (180, -193) (181, -282) (182, -455) (183, -242) (184, -492) (185, -407) (186, -278) (187, -220) (188, -506) (189, -475) (190, -505) (191, 